{"dense_64_weights": [["38690537214279176", "-12042194604873658", "18251657485961916", "23793488740921020", "265206843614578240", "83578348159790032", "31132340431213380", "-120483338832855232", "-179416880011558528", "66535949707031248"], ["-196086436510086048", "-190660282969474784", "-289000630378723136", "332700818777084352", "336139827966690048", "-388646781444549568", "-206808418035507200", "-33634841442108156", "-167729645967483520", "-174044623970985408"], ["87169498205184944", "-214657023549079904", "-194144710898399360", "-352774560451507584", "155178993940353408", "-3644049167633056", "16399472951889038", "360191673040390016", "-407775402069091776", "69601148366928104"], ["268158286809921280", "-220715045928955072", "-113063633441925056", "274772971868515008", "201309412717819200", "-207824394106864928", "-52836030721664432", "297175079584121728", "413429588079452544", "-354904323816299456"], ["110312730073928832", "-305958628654480000", "-2527981996536255", "-187336072325706496", "-28504848480224608", "-336465209722518912", "-291382819414138816", "-199961379170417792", "-381778687238693248", "182879596948623648"], ["135248571634292608", "-230960056185722336", "-407280057668685888", "-45883864164352416", "-140933752059936528", "171798497438430784", "279143482446670528", "25002241134643556", "-164791509509086624", "182743340730667104"], ["-131830781698226928", "-305567115545272832", "332086533308029184", "-256067156791687008", "150273948907852160", "-237879648804664608", "-251352846622467040", "166074723005294784", "-302189290523529024", "-241232693195343008"], ["-19699782133102416", "77952206134796144", "209528416395187392", "382455855607986432", "-164274737238883968", "-316375195980072000", "-147068172693252576", "-203718945384025568", "327173203229904192", "-401734858751297024"], ["225990086793899552", "-184255272150039680", "-115103781223297120", "136307686567306512", "234500974416732800", "263268381357192992", "-204299002885818496", "-158587872982025152", "-77221423387527472", "-241299033164978016"], ["-18075346946716308", "185276597738265984", "406030803918838528", "310572952032089216", "-40087938308715824", "189710646867752064", "-264131337404251104", "-296486169099807744", "18874943256378172", "310519665479660032"], ["-86185604333877568", "403403252363204928", "-299674928188323968", "-80740123987197872", "59317648410797120", "112243324518203728", "-228141546249389664", "-184459224343299872", "-366909414529800384", "-193748071789741504"], ["179742664098739616", "297767788171768192", "-19814312458038332", "-293038547039032000", "224436074495315552", "286334544420242304", "395456403493881216", "70631235837936400", "137673109769821168", "-125130236148834224"], ["-30207663774490356", "-290369391441345216", "-362713038921356224", "299386471509933440", "13932585716247558", "-159632474184036256", "-209843799471855168", "-243742018938064576", "82627832889556880", "196866959333419808"], ["-61255514621734616", "-404985815286636352", "-134290635585784912", "-247944802045822144", "-124084055423736576", "129023045301437376", "-98117828369140624", "-397741854190826432", "-131057262420654304", "-308157384395599360"], ["324607402086257920", "16098290681838990", "-379986822605133056", "-239759579300880448", "-130307108163833616", "339735239744186432", "-262893438339233408", "-208821505308151232", "-76441586017608640", "102437287569046016"], ["144649952650070176", "-159899890422821056", "-52805840969085696", "-174483418464660640", "-163593620061874400", "360137075185775744", "97718626260757440", "356651753187179584", "-155734241008758560", "-218741744756698624"], ["-249549016356468192", "-279173374176025376", "389522045850753792", "-374244004487991360", "260650485754013056", "168734282255172736", "280221611261367808", "-22597461938858032", "-165542826056480416", "297738343477249152"], ["-36838740110397336", "171611219644546496", "-356407552957534784", "-381127476692199680", "86831301450729376", "-178287282586097728", "374667972326278656", "-383602261543273920", "147811204195022592", "258166223764419552"], ["294397562742233280", "209572821855545056", "-392512440681457536", "-325414478778839104", "-171435505151748672", "-170240163803100576", "198820263147354112", "370809704065322880", "-74917733669281008", "123810678720474240"], ["-388917654752731328", "169907897710800160", "-309449464082717888", "11922448873519898", "-41458785533905032", "390620082616806016", "124949783086776736", "82409858703613280", "-168253034353256224", "-272298991680145248"], ["-220191657543182368", "-97047865390777584", "66478103399276736", "97504943609237664", "60621678829193112", "346340805292129536", "189418524503707872", "80998152494430544", "163922518491744992", "-157604396343231200"], ["127364903688430784", "66988378763198856", "11240929365158082", "271640688180923456", "93167573213577264", "-384933322668075584", "-91135174036026000", "-347936749458312960", "65109819173812864", "-319482535123825088"], ["-379698395729064960", "-407750934362411520", "-272638559341430656", "-117316067218780512", "401557356119155904", "-6116271018981934", "-288939923048019392", "-275138795375823968", "-9633660316467286", "291128903627395648"], ["-308972984552383424", "-336430072784423808", "-173966541886329664", "-107220709323883056", "238236516714096064", "281263560056686400", "-139906734228134160", "-341586410999298112", "-191694512963294976", "304969400167465216"], ["-289090752601623552", "-98087728023529056", "-75090289115905760", "76475441455841072", "116311162710189824", "-359912514686584448", "16136676073074340", "-193358257412910464", "-316563844680786112", "-119613856077194208"]], "dense_64_bias": ["0", "0", "0", "0", "0", "0", "0", "0", "0", "0"], "dense_65_weights": [["-365102171897888192", "-615840554237365760", "218110740184783936", "-104593217372894288"], ["-483570933341979968", "471190571784973120", "-66236495971679688", "-341419607400894144"], ["632751107215881344", "-196398735046386720", "-252833932638168320", "181901693344116224"], ["-604405999183654784", "-440578699111938496", "330076813697814912", "108240842819213872"], ["88447988033294672", "251599609851837152", "-174286961555480960", "136018693447113040"], ["-654078662395477248", "615060091018676736", "-314279824495315520", "-235275834798812864"], ["452145338058471680", "295934796333312960", "-529412090778350848", "511618494987487808"], ["-278239786624908448", "-52809894084930416", "-110200166702270512", "-261563420295715328"], ["-9588897228240966", "551400065422058112", "-33480763435363768", "-26656210422515868"], ["480513095855712896", "229062855243682848", "-576144456863403328", "621136546134948736"]], "dense_65_bias": ["0", "0", "0", "0"]}