{"dense_34_weights": [["-220138058066368096", "-136062979698181152", "-91886967420578000", "168892532587051392", "-59367895126342776", "-68816661834716800", "-291359126567840576", "-66812962293624880", "272104710340499872", "124649018049240112"], ["-195188418030738816", "242071181535720832", "-374215573072433472", "358297616243362432", "-201572194695472704", "-178398042917251584", "-332258105278015168", "-144274353981018080", "187256723642349248", "-397858530282974272"], ["-255237758159637440", "59336602687835696", "-168744936585426336", "1402229070663452", "-393973320722579968", "-324897527694702144", "-214860081672668448", "-220226615667343136", "-198292404413223264", "134565681219100960"], ["-366329163312912000", "75675666332244880", "-314335346221923840", "-80857396125793456", "-365593433380126976", "237284988164901728", "-328025579452514624", "-43913811445236208", "250270992517471328", "-405006349086761472"], ["12302130460739136", "169151753187179552", "-4693686962127686", "-359055757522582976", "-348377794027328512", "-389330774545669568", "-209458217024803168", "-199122697114944448", "239548414945602432", "-174205735325813280"], ["367098242044448832", "342224329710006720", "-18636554479599000", "192838102579116832", "277344614267349248", "51409810781478880", "158350497484207168", "382047027349472064", "-291913509368896512", "222188740968704224"], ["-288827389478683456", "159326165914535520", "314834743738174464", "-210998758673667904", "-176086336374282848", "-141194760799407952", "111733645200729376", "244473606348037728", "64619898796081544", "247229784727096544"], ["51979005336761472", "-206972286105155936", "-161065906286239616", "141643911600112912", "-16742318868637084", "44649243354797360", "-391692131757736192", "189003974199295040", "87535113096237184", "75747430324554448"], ["13164103031158448", "182985097169876096", "-68332970142364504", "130981236696243280", "-295063078403472896", "241991490125656128", "41531234979629520", "-17755717039108276", "-333242267370224000", "350530356168746944"], ["-207103580236434944", "-384570360183715840", "11355727910995484", "-392902076244354240", "215965718030929568", "385484963655471808", "254502683877944960", "189531475305557248", "-122963726520538336", "-238675191998481760"], ["-90091049671173088", "18268823623657", "22699922323226928", "-67014425992965696", "98026722669601440", "64440459012985232", "-101359844207763664", "56237071752548216", "-168365374207496640", "-188581943511962880"], ["9160816669464112", "61788290739059448", "-268818020820617664", "-211358070373535", "131831258535385136", "-236385509371757504", "-351630359888076800", "-337758272886276224", "-339005619287490816", "-271043419837951648"], ["-129755198955535888", "-310168117284774784", "53998887538909912", "137038499116897584", "-189217463135719296", "339384406805038464", "394130259752273536", "-207335069775581344", "-115383446216583248", "350637942552566528"], ["177825003862380992", "-194255173206329344", "373391777276992768", "354079455137252800", "6727010011672974", "-313223332166671744", "-137859672307968144", "-410636752843856832", "-100090056657791136", "92279642820358272"], ["-370263725519180288", "-351355314254760768", "-410956770181655872", "387941867113113408", "-35141140222549440", "180575817823410048", "-219042822718620288", "330923944711685184", "-226057678461074816", "130581170320510864"], ["274606138467788704", "-239328891038894656", "-386915922164916992", "347380369901657088", "43521016836166384", "54070949554443360", "141892939805984496", "388294667005538944", "64349710941314696", "-234055250883102432"], ["-396360635757446272", "-387929499149322496", "152479499578475968", "-135665655136108400", "-172227680683136000", "-124208122491836544", "35639166831970216", "-387552022933959936", "312301427125930816", "-355273216962814336"], ["374850898981094336", "358669072389602688", "-73295056819915776", "-202027767896652224", "-374041259288787840", "355811089277267456", "-131863266229629520", "355261594057083136", "145287841558456416", "293969601392745984"], ["-56777924299240112", "336672812700271616", "-306288331747055040", "128211528062820432", "28096377849578856", "-23858636617660524", "-362376719713211072", "-403191477060318016", "61323612928390504", "-378993064165115328"], ["381283432245254528", "367341965436935424", "233079761266708384", "-108687430620193488", "-112784266471862800", "-309692621231079104", "389391392469406144", "-24218767881393432", "391903549432754496", "-160027623176574720"], ["93109875917434688", "-98530083894729616", "-162356913089752192", "17769038677215576", "-88204115629196160", "334619611501693696", "256890326738357536", "-52302390336990360", "-236170798540115360", "-135254204273223872"], ["-300400286912918080", "-214835599064826976", "109388500452041632", "280882507562637344", "-173819556832313536", "-279303014278411872", "-57482242584228512", "117373198270797728", "114007860422134400", "70036470890045168"], ["54412722587585448", "-42327463626861576", "329015523195266752", "363841325044631936", "15985250473022460", "-298245757818222016", "-353220432996749888", "-90916603803634640", "-62944829463958744", "-292266488075256320"], ["336936563253402688", "199994057416915904", "-235959365963935840", "398411899805068992", "203987866640090944", "-141688317060470576", "-268401324748992928", "215278357267379776", "-242094874382019040", "362845510244369536"], ["-153830528259277344", "-395677030086517312", "-15755951404571534", "-29093682765960692", "341979414224624640", "-57584106922149656", "364856511354446400", "53324669599533080", "98214000463485712", "-134484231472015376"]], "dense_34_bias": ["0", "0", "0", "0", "0", "0", "0", "0", "0", "0"], "dense_35_weights": [["16038060188293458", "47489404678344728"], ["-100894987583160400", "660651624202728320"], ["630389392375945984", "671017944812774656"], ["103993475437164304", "-202411592006683360"], ["567701399326324480", "-348145097494125376"], ["-659528374671936000", "160139977931976320"], ["-565427601337432832", "-214174777269363392"], ["-343447744846344000", "470749914646148672"], ["-397210448980331392", "612925112247467008"], ["-412098556756973248", "-97588658332824704"]], "dense_35_bias": ["0", "0"]}