{"dense_54_weights": [["-30789978802204132", "-46371281147003176", "79552620649337776", "39645075798034664", "-72498843073844912", "-10654054582118988", "54159820079803464", "31701847910881044", "-17430275678634644", "51521226763725280", "-9736202657222748", "59978112578392032", "39608180522918704", "-53634166717529296", "-12826792895793914", "41873171925544736", "77582478523254400", "-48950873315334320", "-48314210027456280", "-72734981775283808", "-63938960433006288", "-49601275473833088", "-24494033306837080", "-35404399037361144", "-19613713026046752", "10000385344028472", "22510223090648652", "29439479112625124", "-53636644035577776", "-23486934602260588", "22515483200550080", "-38059126585721968", "45738071203231808", "-52088294178247448", "50809144973754880", "-50465147942304608", "157333910465240", "8923813700675964", "-43895971029996872", "-52132200449705120", "-59671968221664432", "-61848472803831104", "14326862990856170", "19406914710998536", "39833016693592072", "-80626361072063440", "84376975893974304", "11273548007011414", "-23186758160591124", "42715281248092648", "-56365624070167544", "-68563193082809448", "28412051498889924", "62362074851989744", "63529357314109800", "-66538982093334200"], ["22499583661556244", "-78510142862796784", "24925589561462404", "33554583787918092", "-42730048298835752", "57061672210693360", "-21635793149471284", "67355021834373472", "63819363713264464", "32422900199890136", "-28793308883905412", "-49053575843572616", "-56741043925285336", "37632308900356296", "37107437849044800", "36763198673725128", "-66205903887748720", "81513911485672000", "-23100476711988448", "-48680920153856280", "69833129644393920", "-7825046777725220", "-67291587591171264", "-38596950471401216", "-60658875852823256", "23510530591011048", "77421471476554864", "16979657113552094", "-81103578209877008", "44146031141281128", "-18331609666347504", "21725922822952272", "-55564198642969128", "17115227878093720", "17623536288738250", "-71771502494812008", "39822272956371304", "-33655654639005660", "56182488799095152", "69696187973022464", "74182465672492976", "28790868818759920", "-55640123784542080", "-40656629949808120", "-66212937235832216", "-79589523375034336", "-53861055523157120", "10346502065658570", "-22162470966577528", "10299839079380036", "30999131500720976", "-76575979590415952", "1629956066608429", "29831722378730772", "-78543469309806816", "73168605566024784"], ["-14770530164241790", "-5389250814914703", "-11163510382175446", "57707861065864560", "47723025083541872", "-548951327800750", "38651742041110992", "-76378934085369104", "22530876100063324", "-31568132340908052", "-29208056628704072", "-64204759895801544", "-72105750441551216", "-4786163568496704", "71124330163002016", "-41035469621419904", "-79930141568183904", "-77548928558826448", "-41652020066976544", "-77370539307594304", "-42646285146474840", "19084751605987548", "928476452827453", "54583981633186344", "30596755445003508", "55377483367919920", "46222895383834840", "-58864250779151920", "-40465302765369416", "44482633471488952", "21486416459083556", "-16814708709716796", "-78865975141525264", "-22405259311199188", "-57056128978729248", "-50551712512969968", "-28571575880050660", "-45678786933422088", "83729684352874752", "43544113636016848", "62433287501335144", "81984251737594608", "38708820939064024", "40014870464801792", "80729231238365168", "38515061140060424", "-21528005599975584", "-16098111867904664", "2431929111480713", "1210957765579223", "1988887786865234", "-37052530795335768", "75281322002410896", "35030797123908996", "-59830244630575184", "39815403521060944"], ["-69786280393600464", "15671759843826294", "-43349239975214008", "-68848960101604464", "34653343260288240", "-29666591435670852", "-6367720663547516", "45910254120826720", "12906044721603394", "-70507995784282688", "-17164595425128936", "18743254244327544", "-61222512274980544", "45372620224952696", "-58744236826896664", "-18026009202003480", "27392596006393432", "12496091425418854", "32580628991127016", "45858427882194520", "-21905280649662016", "-9930483996868134", "57713970541954040", "68250551819801328", "10317452251911164", "68823143839836120", "9456440806388854", "-51343768835067752", "44208765029907224", "-32431803643703460", "-80925829708576208", "-47347672283649448", "-78800730407238000", "57231560349464416", "69994896650314328", "27990467846393584", "80402195453643792", "62239482998847960", "84064900875091552", "-44598802924156192", "-16073651611804962", "68083256483078000", "587008893489837", "67577496170997616", "26470087468624116", "-59231206774711608", "-82466542720794672", "84104180335998528", "54175943136215208", "-38621492683887480", "24714015424251556", "-63284829258918760", "-35700220614671708", "-32065171748399736", "15266887843608856", "50290614366531376"], ["-84056138992309568", "-56552052497863768", "17461851239204406", "46599969267845152", "31576111912727356", "43080300092697144", "-33991195261478424", "48842579126358032", "22026017308235168", "19373260438442232", "10599792003631592", "8832857012748718", "79261928796768192", "-54418466985225680", "78528344631195072", "-77217176556587216", "2860680222511291", "76803416013717648", "-2253338694572448", "-58276575058698656", "-79436868429183952", "-83940699696540832", "79666033387184144", "18728218972682952", "-1130878925323486", "57174324989318848", "12767717242240906", "-82249425351619728", "10439880192279816", "-6383195519447327", "67036852240562440", "36642655730247496", "-12491278350353240", "-73570519685745232", "65127104520797728", "-4090763628482818", "-59646196663379672", "-41538234800100328", "28722055256366728", "-23831441998481752", "35197459161281584", "-47919128090143200", "1110628247261047", "44137462973594664", "30262507498264312", "-23602757602930068", "36860316991806032", "-25238517671823500", "-53554411977529528", "-75259417295455936", "-63689924776554104", "48163011670112608", "68619742989540104", "-26051994413137436", "-7774978876113892", "59598699212074280"], ["67988589406013488", "56619793176651000", "72801113128662112", "-82267120480537408", "74997246265411376", "56938007473945616", "47066316008567808", "-15782043337821960", "-56654416024684904", "-32086268067359924", "57917639613151552", "-64508542418479920", "-31011164188385008", "43723687529563904", "34175768494606020", "-25637045502662660", "12015394866466522", "60077115893363952", "70164665579795840", "-37117939442396160", "65876752138137816", "73878198862075808", "-14165036380290986", "-25374874472618104", "-18994040787220000", "2514041960239410", "-56687682867050168", "54277643561363224", "10478526353836060", "-47957878559827808", "49764111638069152", "-40752846747636792", "-78683756291866304", "-77509194612503056", "35413347184658052", "49831971526145936", "47448039054870608", "-11210441589355468", "-41719622910022736", "50428047776222232", "50011262297630312", "6217576563358307", "-72077341377735136", "51695466041564944", "26662059128284456", "20984642207622528", "34095190465450288", "3236278891563415", "76949939131736752", "56090086698532104", "46649575233459472", "-44865973293781280", "-2499893307685852", "-34929160028696060", "-26017036288976668", "-27552571147680284"], ["8773326873779297", "68616315722465512", "-56329555809497832", "8393682539463043", "2335414290428161", "-68103492259979248", "-56949917227029800", "-77498756349086768", "-74920251965522768", "-60861725360155104", "337272882461547", "-47329902648925784", "-40099561214447024", "-49225114285945896", "80921784043312080", "-28928011655807496", "-71305714547634128", "74695333838462832", "-17960481345653534", "52645385265350344", "-4620872437953949", "29258675873279572", "-6619952619075775", "19486099481582640", "-26336554437875748", "-54677896201610568", "36169737577438352", "22128663957118988", "-25176335126161576", "-45587223023176192", "37337273359298704", "71360975503921512", "-28648067265748976", "-65845131874084472", "-12729994952678680", "-22724639624357224", "33304281532764436", "4059687256813049", "15416175127029418", "49683764576911928", "31847231090068816", "-75522154569625856", "60081049799919128", "-59012517333030704", "71466773748397824", "-3839977085590362", "-55415369570255280", "19840463995933532", "80178588628768928", "-32845363020896912", "23514032363891", "33578261733055116", "47404035925865176", "62918245792388920", "-63589051365852352", "-34640125930309296"], ["-9043402969837188", "55810123682022096", "-36774177104234696", "-4071921110153198", "-33234179019927980", "51458135247230528", "-31856518238782884", "78457757830619808", "37391290068626400", "-35943593829870224", "-10865733027458190", "-79161792993545536", "-17062880098819732", "-23129049688577652", "-41394181549549104", "1373283565044403", "-54115973412990568", "22829420864582060", "-11543355882167816", "28611496090888976", "13633519411087036", "45123353600502016", "-61097927391529080", "66136851906776432", "-1335263252258300", "-80527871847152704", "-69890134036540984", "36585070192813872", "-42731720954179760", "19065894186496736", "77061936259269712", "-44953364878892896", "-25407858192920684", "60577914118766784", "-18124788999557496", "71252524852752688", "27190536260604860", "-16929909586906434", "-15972740948200226", "-8714087307453156", "61384841799736024", "-24288605898618700", "-63976258039474488", "-79653054475784304", "-75798474252223968", "4029221832752228", "-49489159137010576", "-66351830959320072", "34876868128776552", "-75531139969825744", "-69358877837657928", "80045625567436224", "-69885015487670896", "58507502079010008", "50017029047012328", "61915025115013120"], ["-4019871354103088", "-73755234479904176", "-71103952825069424", "-23173823952674864", "-74303641915321344", "-44878326356410984", "-54341293871402744", "58715671300888064", "-77628582715988160", "-25642246007919312", "-67157059907913208", "25759413838386536", "-38079094141721728", "36405913531780240", "6029032170772552", "-15998959541320800", "-73066405951976784", "53318902850151064", "-6986968219280243", "-29265042394399644", "-7711224257946014", "-7942706346511841", "-15697672963142396", "77010095119476320", "72677940130233760", "65525367856025696", "48200845718383792", "39473198354244232", "-51530823111534120", "37743054330348968", "47435089945793152", "58306604623794552", "60121193528175352", "-58643810451030728", "83929345011711120", "41390329599380496", "-34655742347240448", "-60470268130302432", "8255071938037872", "-56416504085063936", "76246932148933408", "-3190338611602783", "-37656046450138096", "-30032496899366380", "-35396460443735124", "40992856025695800", "73305651545524592", "7796294987201691", "-70956856012344360", "48082619905471800", "-45779980719089512", "-10686799883842468", "68807750940322872", "78045204281806944", "32875023782253264", "4666492342948914"], ["-11109001934528350", "-24244152009487152", "-45115068554878232", "20049780607223512", "31134098768234252", "43760940432548520", "-58819659054279328", "-39164055138826368", "41783258318901064", "-34211657941341400", "48403531312942504", "-65166503190994264", "-58886475861072544", "-73853872716426848", "-4507020115852356", "40579676628112792", "-6697148084640503", "15254877507686614", "48566848039627072", "-81437364220619200", "-60021184384822848", "-10776005685329438", "-19096240401268004", "70234879851341248", "-77116869390010832", "-12043081223964692", "-52683789283037184", "-10381527245044708", "-77423915266990656", "7204510271549225", "-83683267235755920", "18301941454410552", "-28675109148025512", "-29451269656419756", "-71399718523025512", "-75216196477413184", "-65602809190750120", "-82713790237903600", "-61224628239870072", "68165913224220272", "-80276131629943840", "27369268238544464", "13757184147834778", "-73746368288993840", "-7438793778419495", "-41166909039020536", "-75970858335494992", "-70519782602787016", "52081778645515440", "-42087182402610776", "-51154077053070072", "19585117697715760", "69795042276382448", "-58815669268369672", "71283206343650816", "53567081689834592"], ["78207269310951232", "-4536785185337067", "-53550943732261656", "-54760895669460296", "16071997582912446", "50763294100761416", "-71037419140338896", "-34945480525493620", "79250887036323552", "-83312019705772400", "-13827346265316010", "9593680500984192", "-53820654749870304", "-9327091276645660", "27677178382873536", "-57336393743753432", "-21102339029312132", "-77544733881950384", "-73748305439949040", "-62375999987125400", "-6576530635356903", "-22158645093441008", "36911502480506896", "-12510724365711212", "-20662441849708556", "-67198775708675384", "29917195439338684", "52737340331077576", "15192672610282898", "72665527462959296", "-5493752658367157", "48532783985137936", "-21875977516174316", "-73946058750152592", "-35754282027482988", "-82237377762794496", "63436940312385560", "15688560903072358", "73121726512908928", "-9065344929695130", "-15932641923427582", "11442586779594422", "49813017249107360", "-13237997889518738", "-5153857171535492", "3665030002593994", "79532653093338016", "28949894011020660", "-14507994055747986", "9296044707298278", "32219141721725464", "1887738704681396", "38575589656829832", "62207102775573728", "50834476947784424", "-12699849903583526"], ["-78650489449501040", "-47725185751914976", "76204851269721984", "78514114022254944", "-37935122847557064", "-34417025744915008", "-29486794024705888", "3156341612339020", "-71414247155189512", "-8608721196651459", "-77679641544818880", "74026107788085936", "36913618445396424", "14137655496597290", "15417307615280152", "-7645510137081146", "11754207313060760", "15309922397136688", "-26529714465141296", "80289915204048160", "-77744521200656896", "-35006634891033172", "-49494158476591112", "75697779655456544", "32549701631069184", "11082932353019714", "69301977753639224", "69811463356018064", "79270750284194944", "74248686432838432", "-84254965186119072", "-1510486006736755", "-17249025404453278", "-72988227009773248", "-11748000979423522", "80338865518569952", "-13152219355106354", "-79689785838127136", "-52732873708009720", "24866670370101928", "6255000829696655", "-62502726912498472", "-12473143637180328", "37557810544967648", "-4293411970138550", "75613155961036688", "-28347488492727280", "21616004407405852", "-60342058539390560", "7939785718917847", "-48708043992519376", "63171908259391784", "-68832986056804656", "-40365744382143024", "11738307774066926", "22451542317867280"], ["14632845297455788", "99161267280578608", "-69411396980285648", "-58020159602165224", "21462298929691316", "-23692751303315164", "-69366306066513064", "-32643161714076996", "167031228542327872", "-22288933396339416", "107205390930175776", "-52832517772912976", "-33689595758914948", "-58456540107727048", "-19674612209200860", "-14101736247539520", "99307931959629056", "43747477233409880", "22581370547413824", "44670797884464264", "-62750190496444704", "40299680083990096", "-38035571575164792", "87608888745307920", "-47924902290105816", "-50682473927736280", "-21141516044735908", "14774811454117298", "-9409419260919094", "3259055083617568", "-28031511232256888", "62869407236576080", "-20665453746914864", "49191441386938096", "-12493226677179336", "80197907984256752", "-75260728597640992", "-31922046095132828", "40454342961311344", "-8605632930994034", "-64637936651706696", "-16784165054559708", "2827070653438568", "61271101236343384", "32639555633068084", "-83012647926807408", "22867176681756972", "-16490725800395012", "80948442220687872", "42912226170301440", "-8141078054904938", "85361018776893616", "-111561469733715056", "52890945225954056", "31319521367549896", "28044193983078004"], ["83631888031959536", "-70567786693573000", "9291428141295910", "35860937088727952", "-48164378851652144", "-98740875720977776", "-68046674132347104", "10700748302042484", "47091711312532424", "-3462463617324829", "-47243967652320864", "11607095599174500", "-33738430589437484", "33588517457246780", "38990367203950880", "37526607513427736", "100735664367675776", "-12801482342183590", "79383090138435360", "-62950924038887024", "52617534995079040", "3724628593772650", "67083477973937992", "21094407886266708", "70944346487522128", "-135771110653877264", "-86474850773811344", "73732495307922368", "90805545449256896", "-42444966733455656", "97259774804115296", "25247793644666672", "-40754217654466632", "121157377958297728", "-72910733520984656", "65428316593170168", "-57465787976980208", "-85710942745208736", "62405813485383984", "35327915102243424", "49787841737270352", "-35033956170082092", "36928728222846984", "34814529120922088", "-68737432360649112", "75492359697818752", "94477765262126928", "-32588709145784380", "49284789711236952", "7244202774018049", "103780344128608704", "20488575100898744", "40523059666156768", "-23104822263121604", "40590610355138776", "144444048404693600"], ["19040044397115708", "-112166650593280800", "46854838728904728", "141611680388450624", "-23960785940289496", "-61508785933256152", "55490866303443912", "-42384434491395952", "45045286417007448", "-6594322621822357", "-33794187009334564", "-38652826100587848", "115722507238388064", "-45392364263534544", "95079705119132992", "-35098139196634292", "-15540818683803082", "84829524159431456", "43298654258251192", "-10672136209905148", "66117659211158752", "70532292127609256", "81501573324203488", "27986215427517892", "74366323649883264", "-4909052047878504", "-10954919271171092", "-5497275851666927", "54831698536872864", "-32089330255985260", "-10315585881471634", "60042731463909152", "10156444273889064", "47759238630533216", "62416598200798032", "-82232691347599024", "-3453434212133288", "-49569468945264816", "-11258875019848346", "53350482136011120", "21016882732510568", "-56199926882982256", "-69098442792892456", "-80901958048343664", "-28240427374839784", "47486208379268648", "-3404897172003984", "-65845988690853120", "-59997901320457456", "20552676171064376", "-73854237794876096", "-6604993715882301", "58179955929517744", "63686877489089968", "-1466587069444358", "-47025699168443680"], ["-44347289949655536", "40237758308649064", "83512395620346064", "-1624849275685846", "75817495584487920", "-37706498056650160", "-47932554036378864", "25091692805290224", "40495485067367552", "-57975471019744872", "-35174157470464708", "65648868680000304", "25291813537478448", "88583566248416896", "78702062368392944", "47619473189115528", "78992083668708800", "64611077308654784", "-24796715006232260", "-6216322071850300", "63326440751552584", "46474687755107880", "20003497600555420", "55761732161045072", "68532571196556088", "67472472786903384", "-80185711383819584", "74082851409912112", "57800181210041048", "73356889188289648", "-73827959597110752", "14014165848493576", "79633429646492000", "32203741371631624", "-68847976624965664", "12265756726264954", "-25239054113626480", "13901726342737674", "-66987961530685424", "-63636392354965208", "32533179968595504", "-15691479668021202", "-50408829003572464", "14544948935508728", "32347172498703004", "28447989374399184", "-27057435363531112", "-57800136506557464", "-77682152390480048", "-17532767727971076", "-68524092435836792", "12100698426365852", "36652188748121264", "61409495770931240", "-5465836729854345", "-1858907053247094"], ["-78585341572761536", "47856226563453672", "-53886301815509800", "51615893840789792", "25930814445018768", "42874217033386232", "-82327291369438176", "72901383042335504", "-4383459687232971", "82545250654220576", "-68958617746829984", "70768624544143680", "-43243613094091416", "-69203138351440432", "-2399027347564697", "3999680280685425", "23596189916133880", "71652457118034360", "57183772325515744", "-77486276626586912", "59095546603202816", "7190406322479248", "-19725039601325988", "-21567441523075104", "49625068902969360", "-67332148551940920", "-26171285659074784", "8859895169734955", "19088640809059144", "38885317742824552", "64266175031661984", "-59748958796262744", "42749330401420592", "-77648892998695376", "-52770394831895832", "15971064567565918", "-9551748633384704", "-25258485227823256", "39952240884304048", "58347254991531376", "-30978418886661528", "-42398035526275632", "-75464121997356416", "-72891607880592352", "70579081773757936", "77536359429359440", "27471728622913360", "31396716833114624", "-8542835712432861", "-47978330403566360", "-20715013146400452", "7435448467731476", "-47585524618625640", "54813191294670104", "-45413814485073088", "18234662711620332"], ["-47052413225173952", "33144369721412660", "-70121742784976960", "-11783301830291748", "-80259129405021664", "57882413268089296", "41631370782852176", "60639604926109312", "-9347409009933472", "-12429170310497284", "9946644306182862", "72392463684082032", "28801649808883668", "-45455582439899448", "-81465691328048704", "24183399975299836", "35239592194557188", "-25901295244693756", "5052462220191956", "69507703185081480", "64133435487747192", "-45136708766222000", "-84346003830432896", "-58883655816316608", "-8596107363700867", "-1513049006462097", "7950499653816223", "64364448189735416", "-41180368512868880", "-49520716071128848", "62165290117263792", "37513546645641328", "-33827494829893112", "52249610424041752", "-45916978269815448", "-25108993053436280", "15083663165569306", "80320760607719424", "-34855693578720092", "-74084430932998656", "24569876492023468", "-8299119770526886", "44592902064323424", "51786169409751896", "13391338288784028", "-52905399352312088", "26989817619323732", "-70363417267799376", "15696503221988678", "16651153564453124", "-66276147961616520", "-49899999052286152", "14190711081027984", "-6907276809215546", "-17117120325565338", "70179149508476256"], ["63465654850006104", "-69207169115543368", "8768349885940552", "17144247889518738", "-48939045518636704", "83986327052116400", "36106623709201816", "39748124778270720", "-62459886074066160", "-83505041897296912", "56961163878440856", "35009518265724184", "48173800110816952", "83649411797523504", "44645890593528744", "37739105522632600", "-67938320338726040", "-44969402253627776", "21507658064365388", "24280704557895660", "32323956489562988", "-27050774544477464", "34391976892948152", "20531147718429564", "69012627005577088", "-15291526913642884", "18018029630184172", "38039296865463256", "5482926964759827", "-41767954826354", "-29128585010766984", "-10915964841842652", "-40171537548303608", "-35957276821136476", "-8377261459827423", "-43842170387506488", "44644102454185488", "67888990044593808", "39815060794353488", "-6477415561676025", "23951694369316100", "46429216861724856", "22086061537265776", "34864880144596100", "63055962324142456", "-9142801165580750", "-59997186064720152", "-77080562710762016", "68799227476119992", "-61392255127429960", "67447260022163392", "-1941680908203125", "23704417049884796", "-54249588400125504", "5205564200878143", "-52685882896184920"], ["-20670540630817412", "-67306056618690488", "56766524910926816", "-60490299016237256", "1482017338275909", "-2502493560314178", "-38507040590047840", "75858503580093376", "-9622514247894288", "11094696819782258", "-52566755563020704", "-34019626677036284", "-56689899414777752", "-38491364568471912", "79305946826934816", "29708340764045716", "44775947928428648", "12811399996280670", "-15566475689411164", "-59078767895698544", "-73861345648765568", "76810017228126528", "-12164704501628876", "-65576940774917600", "-35394888371229172", "72468295693397520", "-62245912849903104", "7667176425457001", "-14452338218688964", "-75282469391822816", "55110886693000792", "9298175573349000", "-27400657534599304", "5488447844982147", "41154131293296816", "32331839203834532", "-82320638000965120", "62622651457786560", "-67655012011528016", "65558344125747680", "72719469666481024", "-41855718940496448", "66655084490776064", "79395279288291936", "58161303400993344", "-74932560324668880", "-58645885437726976", "-49279134720563888", "-83295859396457680", "-23524455726146696", "35077586770057680", "2072595059871673", "68428263068199160", "73723882436752320", "49886077642440792", "-3436893224716186"], ["67911341786384584", "-10680049657821656", "18395379185676576", "-83166681230068208", "34673780202865600", "-26477042585611344", "-2328500151634216", "-9793408215045928", "-61358124017715456", "-21485932171344756", "42943313717842104", "-1282349228858947", "74993595480918880", "82105755805969232", "-9186021983623504", "-28498634696006776", "-18702246248722076", "-83244174718856816", "-81932894885540016", "-83004370331764224", "-72038635611534120", "-4035711288452148", "35419307649135588", "-59881929308176040", "84219232201576240", "27375653386116028", "-52530243992805480", "39895981550216672", "33127263188362120", "-58667786419391632", "-31525555998086928", "-66090062260627744", "33773496747016908", "5927421152591705", "23214444518089296", "-14392413198947906", "-41687987744808200", "45005708932876584", "69562494754791256", "24494819343090056", "10171703994274140", "-44125400483608248", "-59755571186542512", "63605070114135744", "14570094645023346", "-83555109798908240", "7216274738311768", "-72682023048400880", "-83691045641899104", "6912231445312500", "-54126553237438200", "-27323018759489060", "47529131174087528", "40026694536209104", "-54103925824165344", "-11016979813575744"], ["-52364066243171688", "-30866283923387528", "-39064131677150728", "-42745906859636304", "-48110250383615496", "21470315754413604", "56167975068092344", "-11844865977764130", "71677923202514648", "-10895632207393646", "-18939912319183348", "-21236576139926912", "-19323535263538360", "-72690285742282864", "34814648330211640", "-78376047313213344", "75360834598541264", "-16732074320316314", "-19138716161251068", "36512225866317752", "-72378545999526976", "-5149401724338531", "-69097913801670072", "40881127119064328", "-56737616658210752", "34517392516136168", "2616062760353088", "16281723976135254", "-1298688352108001", "-1932688057422638", "-21747216582298280", "5015283823013306", "31437940895557404", "-8189499378204346", "-45502532273530960", "-40769610553979872", "-34354802221059800", "13660661876201630", "-6524905562400818", "-30836805701255800", "-17089776694774628", "-53411044180393216", "10110951960086822", "-61399370431900024", "43227076530456544", "-10897710919380188", "-77102221548557280", "33104330301284792", "-15906043350696564", "-31006831675767900", "-83468787372112272", "-27878377586603164", "-13675034046173096", "34977421164512636", "-69203019142150880", "-54666634649038312"], ["38260787725448608", "-21526277065277100", "-44694013893604280", "14545932412147522", "-62035121023654936", "-30631255358457564", "-70725657045841216", "-28623785823583604", "19732519984245300", "-37659712135791776", "-10338425636291504", "13489566743373870", "-6426535546779633", "50280913710594176", "60844719409942624", "30130341649055480", "-75791805982589728", "-74447855353355408", "-25688990950584412", "-15262044966220856", "71230188012123104", "74844166636466976", "81731185317039488", "68941533565521240", "-22477235645055772", "-73069371283054352", "-70994295179843904", "15526115894317626", "35323657095432280", "22121928632259368", "-75055420398712160", "-29032591730356216", "-65197512507438656", "43159887194633480", "-45776855200529096", "-60287065804004672", "54823175072669984", "8915066719055176", "-13494469225406646", "33774442970752716", "-53083606064319608", "-30604053288698196", "52206218242645", "-76387293636798864", "30718386173248292", "-5506083369255066", "-80899417400360112", "-6752923130989075", "70189774036407472", "-56676983833312992", "62054470181465152", "63759639859199520", "-64986556768417360", "-80585196614265440", "-46875435858964920", "-51002852618694304"], ["-38163706660270688", "67456096410751344", "52371934056282040", "-44883102178573608", "33239178359508516", "39628230035305024", "54737910628318784", "50077646970748904", "-28856962919235228", "46398237347602848", "-34461576491594316", "65348699688911440", "741280615329742", "59019222855567936", "66733747720718384", "42227223515510560", "40613129734992984", "-11724084615707398", "-65840616822242736", "-16248814761638642", "2246409654617309", "-37088498473167416", "-46666782349348072", "36490887403488160", "-6472177803516388", "58001726865768432", "26723898947238924", "-7255591452121735", "-63909843564033512", "-59852048754692080", "-20301170647144316", "-74142538011074064", "39520263671875000", "-47419507056474688", "-17195992171764374", "-22712025791406632", "66595360636711120", "83406761288642880", "45729845762252808", "-6794370710849762", "-72616010904312128", "75237125158309936", "12407593429088592", "-52111729979515072", "48784270882606504", "74940264225006096", "-16494847834110260", "-82942493259906768", "-3999300301074981", "79072952270507808", "3635488450527191", "24400897324085236", "19733078777790068", "-82117989659309392", "-82469247281551360", "-66994331777095792"], ["-27402490377426148", "-29685430228710176", "-615462660789489", "-38020659238100048", "-15590921044349670", "-74446722865104672", "-27523048222064972", "34940563142299652", "34271642565727232", "7735721766948700", "-8996918797492981", "81524834036827088", "-63060998916625976", "-56113265454769136", "46871930360794064", "81603705883026128", "71590945124626160", "-38909699767827984", "18014624714851380", "66943973302841184", "79828888177871712", "42667448520660400", "60829490423202512", "67664951086044312", "-46122752130031584", "66143199801445008", "-25945562869310380", "-13035871088504792", "11194482445716858", "56192845106124880", "-7286578416824341", "-48315562307834624", "-33786509186029436", "-50102710723876952", "-67309640347957608", "8358098566532135", "72353586554527280", "-70737630128860472", "-61747200787067416", "-58878276497125624", "-15309199690818786", "-65134003758430480", "12421958148479462", "69244474172592160", "-83970844745635984", "-41236508637666704", "-41364803910255432", "-58448836207389832", "-408478081226348", "-68419404327869416", "79159662127494816", "37285946309566496", "-48926610499620440", "-24276595562696456", "42074695229530336", "-870242714881897"], ["-52526939660310744", "36063462495803832", "-22849731147289276", "48614814877510072", "-20472727715969084", "34274183213710784", "82609906792640688", "68475678563117984", "-7964670658111572", "11952586472034454", "-77808119356632240", "60640141367912296", "-46412065625190736", "8966207504272461", "-5309097468852997", "52537962794303896", "-33583819866180420", "82501724362373360", "-16775436699390412", "77591627836227424", "-27244556695222856", "-38080122321844104", "4137329757213592", "19454486668109892", "-44421765953302384", "-49504999071359632", "59272289276123048", "-17049983143806458", "41613802313804624", "-14909245073795318", "-54427433758974072", "65875664353370664", "77368617057800288", "-42753219604492184", "8963547646999359", "8332222700119019", "-68995453417301176", "-21492362022399904", "-77342048287391664", "84033861756324768", "22184237837791444", "-26218373328447340", "-63844636082649232", "29752552509307860", "3848575055599212", "36582186818122864", "-77986523509025568", "-23044601082801820", "-54919518530368808", "-28618387877941132", "-29329583048820496", "-14342986047267914", "-7538013160228729", "6620883941650391", "-77987194061279296", "-28329052031040192"], ["-47881670296192168", "73137268424034112", "49704819917678832", "73342919349670416", "22803589701652528", "80430790781974800", "-48983495682477952", "853031873703002", "-38264133036136624", "6320364773273468", "-10503754019737244", "58293476700782776", "-12754194438457490", "17339460551738740", "-33172741532325744", "-27001183480024336", "-6018593907356262", "-83083055913448336", "13745799660682678", "508911907672882", "-33508904278278352", "-9146668016910552", "-16305662691593170", "-54479923099279400", "-54244689643383024", "61008214950561520", "66479116678237912", "71973085403442384", "26616819202899932", "-65076246857643128", "-55008925497531888", "-46604316681623456", "51074892282485960", "-2660796046257019", "-37562932819128040", "-42956415563821792", "61088174581527712", "-44579822570085528", "-31130634248256684", "56811243295669552", "69324404001235960", "-67856632173061368", "28775796294212340", "-77536232769489296", "-39015669375658032", "8228309452533722", "31472682952880860", "-1949355006217956", "19213005900382996", "24709038436412812", "-58808051049709320", "-9312063455581666", "77708408236503600", "40317848324775696", "6999962031841278", "37854783236980440"], ["-37385027855634688", "71975827217102048", "83585664629936224", "16683615744113922", "-125855207443237", "-57810321450233456", "-72615854442119600", "57368308305740360", "5975633859634399", "-65343476831912992", "-11489801108837128", "-65500974655151368", "-52330415695905688", "-55235914885997776", "-80533795058727264", "13647951185703278", "-26919253170490264", "39445266127586368", "-2216547727584838", "19260786473751068", "-9167261421680450", "-78947983682155616", "11927515268325806", "-35869684070348740", "1255229115486145", "-32669894397258760", "-48045914620161056", "-18257454037666320", "74419945478439328", "-76649248600006096", "-24967622011899948", "-10744430124759674", "-25589007884263992", "50315737724304200", "-78480042517185216", "-64181804656982424", "18568933010101320", "-80162525177001952", "51224082708358768", "-16866095364093780", "-41157539933919904", "66510424017906192", "23148149251937868", "-65756775438785552", "63609674572944640", "52630469202995304", "-65150603652000424", "-83165891468524928", "81470549106597904", "-57728856801986696", "24932540953159332", "25228664278984068", "-64546786248683928", "60736954212188720", "34034818410873412", "-72038456797599792"], ["-61252012848854064", "70316255092620848", "82060620188713072", "26078894734382628", "-9991161525249482", "-58203008025884632", "-84405727684497840", "-24526719003915788", "77341482043266304", "47680184245109560", "44553399085998536", "-70936426520347592", "-54923184216022488", "-64216829836368560", "-54341554641723632", "79938396811485296", "77574312686920160", "-74259996414184576", "-66347755491733552", "54951488971710208", "-13057030737400054", "-45698452740907672", "44906064867973328", "-69723293185234072", "17570152878761292", "24228520691394804", "17232663929462432", "55662363767623904", "-32464988529682160", "73598220944404608", "-2609632909297943", "-14321245253086090", "31732477247714996", "-6440803408622742", "21443940699100496", "14365352690219880", "76911211013793952", "52801206707954408", "75522109866142272", "16502730548381806", "-78061722218990320", "-26705503463745116", "-82312516868114464", "14734923839569092", "-28036594390869140", "-37071332335472104", "-42592283338308336", "-15645503997802734", "47823563218116760", "83962932229042048", "50938114523887632", "47244429588317872", "5102150142192841", "-17281547188758850", "-6173186004161835", "-10084718465805054"], ["6200730800628662", "62356442213058472", "57381436228752136", "-14659419655799866", "32541476190090180", "3882750868797302", "-77465966343879696", "-64226724207401272", "-42978033423423768", "68153038620948792", "82721725106239312", "74080720543861392", "42650714516639712", "76618775725364688", "46155229210853576", "1643359661102295", "26123911142349244", "-56261308491230008", "83656668663024896", "66815808415412904", "19827038049697876", "-1828014850616455", "44444233179092408", "21628536283969880", "-64145557582378384", "8246123790740967", "-586107373237609", "35757265985012056", "61397448182106016", "-24314761161804200", "-53120702505111696", "-42070213705301288", "21127507090568544", "33511988818645476", "48836782574653624", "-30828949064016344", "41625082492828368", "-65394297242164608", "-21829858422279356", "84444493055343632", "81108331680297856", "-49554888159036640", "-12094423174858094", "-25257941335439684", "-36874063313007352", "-51360134035348896", "59111595153808592", "-79982951283454896", "51660239696502688", "51039665937423704", "14915749430656434", "-29088385403156280", "54061323404312136", "-36815565079450608", "-70194281637668608", "-68215340375900272"], ["76154276728630064", "62678098678588864", "-45454736799001696", "3236196935176849", "-68762555718421936", "-5513757467269897", "43481811881065368", "80158054828643792", "44956788420677184", "5939126014709473", "-23568965494632720", "19964367151260376", "-13331837952136994", "77513799071311952", "-32625343650579452", "-62783673405647280", "-6574273109436035", "68038329482078552", "-29301997274160384", "-35227179527282716", "55858775973320008", "71937173604965208", "-29037568718194960", "-64796850085258480", "41441336274147032", "14159038662910462", "31866513192653656", "-57048812508583072", "-8160248398780823", "-17912141978740692", "68886667490005496", "45519635081291200", "19942723214626312", "22322863340377808", "40085069835186008", "-50860513001680376", "74099928140640256", "-57393781840801240", "54783061146736144", "59061557054519656", "66147565841674808", "29210597276687624", "-10850355029106140", "46048253774642944", "25337532162666320", "66920801997184752", "60911670327186584", "9306438267230988", "-69220185279846192", "33443257212638856", "-82421287894248960", "51920339465141296", "-45658595860004424", "9297393262386322", "10109201073646546", "-39650011807680128"], ["61362326145172120", "5741834640502930", "67851915955543520", "-62726914882659912", "-32974988222122192", "-25394983589649200", "79645261168479920", "-69641605019569400", "-6276778876781464", "-31624551862478256", "24224303662776948", "-74828289449214928", "71983113884925840", "-53782105445861816", "-50044372677803040", "44801875948905944", "-47941211611032488", "-9139232337474822", "25629833340644836", "-47282669693231584", "21593473851680756", "-1605235040187835", "-52862357348203656", "1686438918113708", "-47986250370740888", "-22189270704984664", "22514171898365020", "-3807187080383301", "41116088628768920", "-2175919711589813", "-32635558396577836", "-77060610055923456", "1503676176071167", "22608272731304168", "-9561158716678620", "6625398993492126", "22171743214130400", "40308594703674320", "26235826313495636", "-33614832907915116", "70986270904541016", "79131901264190672", "12588642537593842", "81548124551773072", "27362875640392304", "40682986378669736", "78877836465835568", "29996588826179504", "48828870058059696", "6855770945549011", "-75992479920387264", "-51652528345584872", "-55199582129716872", "32692104578018188", "18742039799690248", "25831773877143860"], ["3425203263759613", "84373556077480320", "-58868117630481720", "64963266253471376", "16254937276244164", "-40080685168504712", "-82196213304996496", "-96435293555259712", "-41821967810392376", "-51185511052608488", "-13741829432547092", "-68075425922870632", "29976796358823776", "-2826065756380558", "-26955110952258112", "-79886183142662048", "-59999611228704456", "87039031088352208", "-6218087859451771", "5370978266000748", "56841224431991576", "-58677621185779568", "-29409658163785936", "4216632340103388", "80013602972030640", "-93635275959968560", "67514061927795408", "72992473840713504", "-5050770938396454", "64988240599632264", "27267731726169588", "-35971798002719880", "-32594133168458940", "55651217699050904", "47125067561864856", "-55352244526147840", "-86747147142887120", "-64602389931678768", "-55150151252746584", "-33933412283658980", "-8862827904522419", "-19257321953773500", "82222864031791680", "52402317523956296", "-54996822029352192", "-51692083477973936", "27674013748764992", "18413264304399492", "50953589379787448", "-40908206254243848", "98007731139659888", "81597492098808288", "4226119723170995", "-12420649640262126", "-15018520876765252", "55159889161586760"], ["62780894339084624", "86643770337104800", "3254071576520800", "-58376900851726528", "-83248108625411984", "40312722325325016", "-100185498595237728", "5811655428260565", "-23277819156646728", "55421352386474608", "14709708280861378", "-27244338765740396", "-66743567585945128", "-69204166531562808", "35299938172101976", "-5837301257997751", "-19301127642393112", "10345106944441796", "106815725564956672", "24687964469194412", "-35611197352409364", "-4634902346879244", "35113550722599028", "60476098209619520", "81592790782451632", "49842860549688336", "56570589542388920", "39479382336139680", "75408473610877984", "69712691009044648", "-1939426991157233", "95112070441246032", "-83052873611450192", "35317070782184600", "-47394100576639176", "97984731197357184", "54988175630569456", "-44655296951532360", "37210281938314440", "-37899743765592576", "-53262580186128616", "84550358355045312", "11423323303461074", "-40921058505773544", "-34773424267768860", "-6739892065525055", "-45541074126958848", "-25791255757212640", "100855931639671328", "-24882020428776740", "121485181152820592", "-45832887291908264", "-72233438491821296", "-18654601648449896", "-6569251883774996", "30038286000490188"], ["-164453759789466848", "-12494307011365890", "-157096505165100096", "19567549228668212", "-75398750603199008", "-31265102326869964", "-5695317871868610", "-25793183594942092", "49968406558036808", "55973619222640992", "72310104966163632", "13787187635898590", "-36694467067718504", "-158903613686561600", "93750350177288048", "-124606668949127200", "133145719766616816", "49792561680078504", "88349685072898864", "-9452781639993190", "-50178371369838712", "-69237984716892240", "-40525332093238832", "14586533419787884", "166823133826255808", "-62934011220932008", "18243741244077684", "-53513206541538240", "17921835184097290", "-20922664552927016", "87095282971858976", "-121727176010608672", "-18818883225321768", "29861263930797576", "5250432994216681", "85423193871974944", "-161973446607589728", "-87958566844463344", "-57624522596597672", "-82506671547889712", "-65872505307197568", "98476916551589968", "162803769111633312", "64094848930835720", "-132073804736137392", "26552826166152956", "125731885433197024", "-54407197982072832", "128880858421325680", "107869893312454224", "52283532917499544", "-16615141183137894", "-59490092098712920", "-2856935840100050", "104052565991878512", "-65116614103317264"], ["-138006970286369328", "-80741412937641136", "-99454917013645168", "-68377532064914704", "-26128640398383140", "65576955676078800", "-130775868892669680", "-18225166946649552", "-41030194610357288", "-84726609289646144", "88676549494266512", "41165765374898912", "-27257187291979788", "-38795739412307736", "76464340090751648", "-116068027913570400", "98329685628414160", "152164101600646976", "21991398185491560", "25043103843927384", "-91742113232612608", "-93152239918708800", "13259504921734334", "-13537464663386344", "136645957827568048", "-143413111567497248", "-82935489714145664", "-75500465929508208", "44179491698741912", "117677628993988032", "41850373148918152", "-48972811549901960", "51285475492477416", "-80765150487422944", "-27954015880823136", "169510662555694592", "-15389887616038322", "-85846111178398128", "-95567733049392704", "-57744681835174560", "-75347393751144416", "124708794057369232", "144727125763893120", "5915116053074598", "-100896008312702176", "-11037488467991352", "55627606809139248", "4028137773275375", "103000797331333168", "175756692886352544", "117278359830379488", "-74147202074527744", "-78917294740676880", "73158100247383120", "74040740728378288", "-37177614867687224"], ["-98553672432899472", "65159440040588376", "-33707208931446076", "-19249888136982916", "-51042016595602032", "38540598005056384", "-104421608150005344", "-46408336609601976", "-50184831023216248", "-36464918404817584", "98431117832660672", "-33270072191953660", "12867643497884274", "-19224029034376144", "29178537428379060", "-60877639800310136", "67840538918972016", "28576154261827468", "55077657103538512", "-27865944430232048", "-18501074984669684", "-89226149022579200", "72985582053661344", "-20932525396347044", "95114514231681824", "13315257616341114", "-6722863763570786", "34870099276304244", "41871104389429096", "86125463247299200", "153092190623283392", "-79868972301483152", "-81002175807952880", "52827995270490648", "-84339305758476256", "81120826303958896", "-117257609963417056", "-107598364353179936", "-6093021016567945", "-1755062956362962", "5922510288655758", "115021139383316048", "19221303984522820", "-56070055812597272", "18321964889764784", "-115395061671733856", "108813427388668064", "-2869008108973503", "84743887186050416", "81355407834053040", "-9267541579902172", "81056848168373104", "-36669425666332248", "48131339251995088", "35982202738523484", "-53351528942584992"], ["-66450141370296480", "95939002931118016", "16114875674247742", "-83185046911239632", "-133117854595184320", "36990631371736528", "-30252125114202500", "20041996613144876", "33096298575401308", "59031322598457336", "88757753372192384", "-76501555740833280", "-130184471607208256", "-64636319875717160", "120330996811389920", "-20125551149249076", "63088618218898776", "43196197599172592", "117712512612342832", "17216758802533150", "-41332840919494632", "-44394314289093016", "25053055956959724", "-45493245124816896", "34859165549278260", "-99170491099357600", "-53764656186103824", "-82646749913692480", "-31196177005767824", "-18401302397251128", "16605613753199578", "115172944962978368", "-110737882554531104", "-56621827185153960", "-115868978202342992", "163308605551719680", "-118384972214698784", "-54509535431861880", "-101331144571304320", "4194583743810653", "39344675838947296", "73947362601757056", "31568687409162520", "-64701199531555176", "-96893750131130224", "-144238427281379712", "118082858622074128", "-24421969428658484", "40324531495571136", "135033026337623600", "36473028361797336", "98882928490638736", "-116270065307617184", "117601238191127776", "141432702541351312", "52975121885538104"], ["-14315398409962654", "185692399740219104", "-52725672721862792", "-58913234621286392", "-104636512696743008", "27924159541726112", "-35702474415302276", "-28625840321183204", "-12905780225992202", "42266573756933216", "105487763881683344", "18941951915621756", "-61336044222116472", "-167650684714317312", "149570763111114496", "-18965540453791620", "118228100240230560", "186003044247627264", "143409326672554016", "-57618927210569384", "-48571582883596424", "-171603947877883904", "45592479407787320", "-45075394213199616", "27369929477572440", "-56048642843961712", "-206567779183387744", "-31388565897941588", "-35179384052753448", "-21897869184613228", "48436619341373440", "131154432892799376", "-161340758204460160", "5793426185846329", "-78767061233520512", "82437194883823392", "-158171907067298880", "-36280535161495208", "-108290486037731168", "-59019677340984344", "-28099264949560164", "-8049077354371548", "64169645309448240", "24332346394658088", "-62511898577213288", "-2403174759820103", "53163539618253704", "-1280331751331687", "126025855541229248", "219548761844635008", "58135006576776504", "93322791159152992", "-153999671339988704", "132249280810356144", "15329490415751934", "-32463222742080688"], ["-68872645497322080", "171329066157340992", "-4564231261610985", "-109240390360355376", "-215998411178588864", "-19905624911189080", "-5899097770452499", "11040778830647468", "74992530047893520", "169431209564208992", "71987390518188480", "-38575988262891768", "-16980795189738274", "-157117247581481920", "121323287487030032", "-64783602952957152", "133517354726791376", "76762862503528592", "96914239227771760", "-83544693887233728", "-103318147361278528", "-181612581014633184", "127240762114524848", "-12288540601730346", "41800688952207568", "-47770809382200240", "-172513887286186208", "37173397839069368", "59762492775917056", "37565927952528000", "27094427496194840", "3937153611332178", "-95013327896595008", "64941287040710448", "-83091571927070624", "233675435185432448", "-148201093077659616", "-62027323991060256", "-207359388470649728", "-125861570239067072", "64922362565994264", "1489108661189675", "-17668992280960084", "-84191836416721344", "-139927119016647344", "4813683684915304", "51004223525524136", "-4779785871505737", "98013654351234432", "75666964054107664", "40172036737203600", "-20989339798688888", "-222699642181396480", "188569068908691392", "117149330675601952", "-55989012122154232"], ["-123217739164829248", "289529919624328640", "-102500937879085536", "-86402304470539088", "-24329848587512968", "81835985183715824", "542181020136922", "-60041606426239016", "303318083286285376", "138865068554878240", "174182444810867296", "28508393093943596", "-308078497648239104", "-179729193449020384", "134318828582763664", "-153281435370445248", "301759541034698496", "125925242900848384", "257501423358917248", "-126209706068038944", "-51237039268016816", "-313578307628631616", "87898410856723792", "-11945169419050216", "65208129584789280", "20441655069589616", "-216410368680953984", "18171463161706924", "15181369148194790", "876898120623081", "35786766558885576", "26893958449363708", "-297802269458770752", "56102946400642392", "-185217544436454784", "207860484719276416", "-224013417959213248", "-162245571613311776", "-202561303973197952", "-142025649547576912", "-6446648389101028", "96461795270442960", "114709988236427312", "-92648543417453760", "-159222513437271104", "-126643970608711248", "180161252617836000", "-176903739571571360", "88883936405181888", "-11192878708243370", "210611224174499520", "122775450348854064", "-134820863604545600", "106778025627136224", "59896070510149000", "47694869339466096"], ["-100128643214702608", "410629689693450944", "-126120135188102720", "15634084120392800", "-120440050959587104", "132918894290924080", "-209318011999130240", "-33779956400394440", "157358601689338688", "75958907604217536", "116742342710494992", "-68233333528041840", "-186174288392066944", "-246868222951889024", "172413975000381472", "-216283217072486880", "218807727098464960", "403284311294555648", "251572996377944960", "-92668063938617712", "-159223347902297984", "-212731316685676576", "99569626152515408", "42631212621927264", "48547267913818360", "-3619156312197447", "-127491950988769536", "-77264465391635888", "79253822565078736", "45179601758718488", "68826273083686832", "-81181481480598448", "-195454478263854976", "145897746086120608", "-106532573699951168", "144354313611984256", "-306953489780426048", "-204232171177864064", "-123087435960769648", "-7948582060635090", "27343774214386940", "104971677064895632", "-4882342182099819", "-486054952489212", "-123121969401836400", "-200972393155097952", "252322435379028320", "-108758673071861264", "110600396990776064", "162800014019012448", "156516507267951968", "-20457932725548744", "-237449452280998240", "181902810931205760", "39100293070077896", "39501190185546872"], ["-86935251951217648", "81303514540195472", "-112860433757305152", "181229069828987136", "-287118583917617792", "17394773662090302", "-20558195188641548", "-60179539024829864", "150129288434982304", "137535810470581056", "38655128329992296", "117656417191028592", "-151648297905921952", "-60866147279739376", "161726891994476320", "98446346819400784", "-5526449531316757", "188591584563255296", "36804296076297760", "134761840105056768", "-25056222453713416", "19934754818677904", "96059530973434448", "-59261441230773928", "-35993613302707672", "75645595788955696", "147703960537910464", "-27401493862271308", "-65589211881160736", "-3982875030487776", "120400391519069664", "-74499294161796576", "-116436801850795744", "181351542472839360", "-118093252182006832", "10892735794186592", "-134296998381614688", "43101619929075240", "-127997219562530512", "-83609998226165776", "-53971808403730392", "78517459332942960", "134763360023498528", "55010747164487840", "-89576162397861488", "115441821515560144", "-103520445525646208", "130271553993225104", "91928333044052128", "14888918027281762", "311289157252758", "-172540679574012768", "-43551906943321232", "21455427631735800", "215029448270797728", "61005871742963792"], ["-19813308492302896", "-39883028715848920", "-146825745701789856", "154982432723045344", "-326189279556274432", "230294659733772288", "-94207994639873504", "-146421894431114208", "216088518500328064", "61010222882032392", "267836540937423712", "116983361542224880", "-155917525291442880", "-52403610199689864", "2696710173040628", "-38067165762186048", "74546918272972112", "251506924629211424", "78260295093059536", "215982139110565184", "18430635333061220", "-70198982954025272", "24639662355184556", "-21793551743030548", "-96983775496482848", "187461480498313888", "140768587589263920", "-51462188363075256", "-121797874569892880", "70386409759521488", "84717094898223872", "-293742805719375616", "91213136911392208", "272557675838470464", "-171435713768005376", "148604750633239744", "-297727108001708992", "-9000148624181747", "-272556364536285408", "-49970358610153200", "-90420149266719824", "-110548913478851312", "147344425320625312", "20512310788035392", "-93649506568908688", "26908643543720244", "-189681008458137504", "-50505217164754864", "219892740249633792", "-164396628737449632", "-41903760284185408", "-68346463143825528", "-159593522548675552", "-30954483896493912", "280935823917388928", "57413805276155472"], ["128175199031829840", "-123554259538650512", "-108174748718738560", "245117262005805984", "-133080542087554928", "102637939155101776", "-1560797449201345", "71998462080955504", "126843690872192384", "-178315505385398880", "193898484110832224", "-292339950799942016", "11833936907351016", "78566618263721472", "271654695272445664", "-362867742776870720", "251618206501007072", "228441208600997920", "257333576679229728", "2112016547471284", "240825936198234560", "-337692022323608384", "253316313028335584", "111777402460575104", "12521388009190560", "58739345520734784", "-199554100632667552", "-7374017965048552", "272857636213302624", "202488183975219712", "-88634334504604336", "-200936421751976000", "223052337765693664", "17552014440298080", "-140562132000923152", "94318240880966192", "-201794758439064032", "-358070641756057728", "-247658863663673408", "121192477643489840", "-14773514121770858", "189982354640960704", "253187954425811776", "26536326855421068", "-150167927145957952", "-290843456983566272", "185991153120994560", "-111396208405494688", "144970118999481216", "54086674004793168", "218555182218551648", "289173543453216576", "-235015705227851872", "106861941516399376", "83829797804355616", "-73796197772026064"], ["81986792385578160", "-20564122125506400", "-60210980474948880", "214623361825943008", "-258599489927291872", "143919095396995552", "-68285115063190464", "52532654255628584", "70265911519527432", "-57470608502626416", "320697307586669952", "-326365441083908096", "-133722275495529168", "54647721350193024", "108194932341575616", "-250173330307006848", "259855747222900384", "160509124398231520", "210769966244697568", "-61476305127143856", "218175783753395072", "-277022242546081536", "166508346796035776", "25581279769539832", "93990743160247808", "152550563216209408", "-257827520370483392", "49224533140659336", "202235683798789984", "119854636490345008", "-72611078619956976", "-235861763358116160", "135967120528221136", "27585368603467940", "-127113029360771184", "109552577137947088", "-150032371282577504", "-189496368169784544", "-189651384949684128", "22628981620073320", "103680074214935296", "73435887694358832", "95171920955181120", "7655749563127756", "-198698714375495904", "-303885817527771008", "399744033813476544", "-118111878633499152", "96591308712959296", "26169644668698312", "240899085998535168", "399723738431930560", "-279755532741546624", "227019011974334720", "180381178855896000", "-50818953663110736"], ["-13092003762722016", "-4145079758018255", "-104487620294094080", "-63227295875549320", "-40954224765300752", "-30189983546733856", "-147286728024482720", "-244201853871345536", "103437565267086032", "-69382227957248688", "113140225410461424", "140587538480758672", "-143607109785079952", "-107140012085437776", "34944534301757812", "57774372398853304", "201250672340393056", "161579072475433344", "185638442635536192", "-52095688879489896", "-209218040108680736", "-78860118985176080", "-109794728457927696", "-157413482666015616", "221940100193023680", "-165784001350402848", "-247040688991546624", "55462762713432312", "-189322054386138912", "-12053336948156356", "85834369063377376", "102892473340034480", "-387264579534530624", "-38391590118408200", "-183668583631515488", "143862619996070864", "-194233074784278880", "-69943226873874664", "-115987002849578864", "-226186454296112064", "68412415683269504", "148158177733421312", "140527978539466864", "44007308781147000", "-17141180112957954", "65036147832870480", "237422764301300064", "-138596698641777040", "127781957387924192", "99849492311477664", "194505751132965088", "-3703326452523470", "-146089673042297376", "81904932856559760", "56871891021728512", "-60344893485307696"], ["59141989797353744", "195674329996109024", "-111900582909584048", "-123837076127529152", "-161880463361740128", "-47823414206504824", "11220403946936130", "-158779174089431776", "180009797215461728", "11855901218950748", "166320204734802240", "208033427596092224", "-152990072965621952", "-213551193475723264", "205412939190864576", "-109571114182472224", "246149525046348576", "200125381350517280", "112480610609054560", "18918734043836592", "-184187650680541984", "-56193884462118152", "135015875101089472", "-185285806655883776", "250344902276992800", "-94807498157024384", "-144227817654609696", "21537795662879944", "64975887537002560", "55796325206756592", "193733498454093920", "127348244190216064", "-255750954151153568", "120446965098381040", "-130956485867500304", "229656428098678592", "-73761917650699616", "-168654277920722976", "-174604833126068128", "-226938202977180480", "27891367673873900", "-9425015188753604", "20932586863636972", "54987687617540360", "-45379776507616040", "166509658098220832", "106817655265331264", "-100059650838375088", "85469305515289312", "174317747354507456", "212173670530319200", "15256886370480060", "-153201475739479072", "59344239532947544", "161495581269264224", "-39925534278154376"], ["-26664879173040392", "288430541753768896", "-68144686520099640", "-114115960896015168", "-98554544150829312", "-2203570213168859", "-116514891386032112", "-215571969747543328", "349813759326934784", "235069543123245248", "114609345793724064", "214913144707679744", "-173214539885520928", "-224053978919982912", "135281428694725040", "6259043235331774", "238599583506584160", "313666939735412608", "248653143644332896", "40729284286499024", "-242629811167716992", "-242371246218681344", "81773996353149408", "-23998294025659560", "96179157495498656", "-182838231325149536", "-390843421220779392", "-55264476686716080", "65728262066841128", "5788953974843025", "168979272246360768", "102781765162944800", "-309567481279373184", "275071918964385984", "-64799822866916656", "239989891648292544", "-192215278744697568", "-199588641524314880", "-239734202623367296", "-279928416013717664", "75131185352802272", "14347988180816174", "-47448396682739256", "-88024586439132688", "-55503703653812408", "249200537800788864", "267284721136093152", "-215820282697677600", "205902338027954112", "293467640876770048", "147392511367797856", "12964811176061630", "-311783432960510272", "87650068104267120", "111287526786327360", "-107944309711456304"], ["-71307763457298280", "237066522240638720", "-20596064627170564", "-105800077319145200", "-111801318824291232", "-58001358062028888", "-134555160999298096", "-167451247572898880", "264823675155639648", "119089052081108096", "148822233080863968", "113316945731639856", "-156955286860466016", "-280128240585327136", "-23361617699265480", "77701941132545472", "143136098980903632", "115281745791435248", "71218371391296384", "-20582180470228196", "-299450606107711808", "-689466309268027", "-93572899699211120", "-88304430246353152", "68755686283111576", "-16140526160597802", "-231213480234146112", "-20824044942855836", "-3975214436650276", "4518330097198486", "114367499947547920", "88651984930038448", "-129969775676727296", "175130099058151232", "-23556333035230636", "192551299929618848", "-208712175488472000", "-11403362266719342", "-145096272230148320", "-216140940785408032", "91839760541915888", "-118709526956081392", "31386300921440124", "33619407564401628", "-134236827492713936", "259470313787460320", "298612922430038464", "-76358243823051456", "111074939370155328", "221149355173110976", "176840737462043776", "-55816903710365296", "-272485375404357920", "-20035261288285256", "174506068229675296", "-46797659248113632"], ["-108457036316394800", "-59784080833196640", "34268558025360108", "1121272798627615", "-15377341769635678", "-101855367422103888", "-134283810853958128", "-225302666425704960", "54460864514112472", "132839143276214592", "154156699776649472", "82918807864189152", "-44882547110319136", "-212170138955116256", "115226499736309056", "16012253239750862", "85279293358325952", "177225694060325632", "130468487739562992", "-82691311836242672", "-149712502956390368", "-171214550733566272", "-40529120713472368", "45690771192312240", "135826751589775088", "-174828320741653440", "-86476095020771024", "-50430327653884888", "-63647545874118808", "32306607812643052", "139680758118629456", "40657151490449904", "-72018653154373168", "122406624257564544", "-195332393050193792", "214084401726722720", "-147404730319976800", "-159361809492111200", "-62368754297494888", "-47484170645475384", "91077126562595360", "-15307791531085968", "-12715025804936886", "53827583789825440", "-147253960371017472", "152479961514472960", "202753037214279168", "-137531518936157232", "201925322413444512", "160516783595085152", "96959501504898064", "-146765202283859264", "-251816302537918080", "-23645538836717604", "79597942531108864", "-7906027138233185"], ["-170223683118820192", "-16873765736818314", "-10873109102249146", "-11633589863777160", "-54908454418182376", "19291520118713380", "-112502597272396080", "-59108227491378784", "39767712354660032", "44739276170730592", "-1078426139429211", "-54927658289670944", "-66498272120952608", "-113635040819644928", "40360726416110992", "-90517327189445488", "127972006797790528", "139761507511138912", "65050132572650912", "-94635650515556336", "-116993345320224768", "-179933279752731328", "-61621900647878648", "-54984241724014280", "-651850656140595", "-142953023314476016", "15318289399147034", "32031036913394928", "-42846810072660448", "-41034854948520664", "67456603050231936", "30838411301374436", "-128987595438957216", "65531283617019656", "-140755414962768560", "137596413493156432", "-109004341065883632", "-137896925210952752", "-153905883431434624", "-147291451692581184", "-81626839935779568", "-32434694468975068", "61962693929672240", "-90260364115238192", "-37261545658111576", "84990330040454864", "156082451343536384", "-11579607613384724", "182871431112289440", "149693086743354784", "112302683293819424", "-20350940525531768", "-112015172839164736", "35993870347738264", "110554896295070656", "-44898100197315216"], ["82809433341026304", "-60057416558265688", "-22303786128759384", "46338975429534912", "31537443399429320", "-70434831082820896", "-32551635056734084", "32365731894969940", "4757486283779144", "35988628864288332", "77441066503524784", "-45099232345819472", "-59700518846511840", "28289780020713808", "-5793161690235138", "82700446248054512", "-74108384549617760", "-54099991917610168", "-27503222227096556", "9505942463874816", "-5626313388347626", "70722490549087528", "-48115953803062440", "-37205811589956280", "45182242989540104", "-12803845107555390", "24055853486061096", "-73426648974418640", "-55551603436470032", "2788484096527099", "-62360242009162904", "35486832261085512", "28225846588611604", "3579653799533844", "14624826610088348", "67436382174491880", "-64916439354419712", "69816693663597104", "-3662146627902984", "-41559856384992600", "39715401828289032", "-16511127352714538", "8811175823211670", "-31769491732120512", "-59426255524158480", "-64606331288814544", "-50324399024248120", "79411268234252928", "-2653822302818298", "-3474071621894836", "-5991756916046143", "52846789360046384", "40273472666740416", "-35999689251184464", "7660023868083954", "46479105949401856"], ["49500510096549984", "23930355906486512", "25626525282859804", "19002318382263184", "74219226837158208", "-29614664614200592", "39007209241390232", "63897147774696352", "-53072985261678696", "-3781519830226898", "-63571624457836152", "-33192165195941924", "21191887557506560", "-50513487309217456", "-64608506858348848", "-5204431712627411", "-83157971501350400", "-57337500154972080", "64595550298690792", "63603639602661136", "-3272406756877899", "13826057314872742", "35761356353759764", "-16639120876789094", "76991900801658624", "-82250453531742096", "11065416038036346", "-9903728961944580", "-47089509665966032", "-72467848658561712", "75515508651733392", "-69166019558906552", "23871116340160368", "-83106733858585360", "-26810161769390108", "-68277403712272648", "-17214164137840270", "-61289995908737184", "-59191003441810608", "75553491711616512", "52332386374473568", "58529376983642576", "64963206648826600", "8783221244812012", "76986372470855712", "44482976198196408", "-77586628496646880", "-82893505692482000", "-51281366497278216", "-66472187638282776", "-6142117083072662", "-82322552800178528", "-6858594715595245", "-84180869162082672", "19416421651840208", "10644003748893738"], ["-8613780140876770", "-54946236312389376", "63114628195762632", "63280463218688968", "-66692285239696504", "7530115544795990", "66648945212364200", "-47235500067472456", "-13791963458061218", "-53556285798549656", "11342018842697144", "24075657129287720", "-26860818266868592", "-3769166767597198", "65773293375968936", "-9101174771785736", "62570407986640928", "1728810369968414", "-81067688763141632", "-76882384717464448", "49774691462516784", "-38918565958738328", "30091397464275360", "24975113570690156", "24390384554862976", "72084471583366400", "-62312692403793336", "-24118114262819292", "-70438116788864136", "-52257776260375976", "45056506991386416", "59848725795745848", "49154460430145264", "-28577722609043120", "-8205041289329529", "-77568374574184416", "64149752259254456", "-21664768457412720", "-22194955497980116", "31378559768199920", "-65517127513885496", "38053728640079496", "-56550242006778720", "-74231505393981936", "-55505480617284776", "-24452786892652512", "-589810311794281", "-44518165290355680", "58052733540534976", "15068888664245606", "75815618038177488", "-77322766184806816", "17114706337451934", "-28856862336397172", "-64559139311313632", "-42690433561801912"], ["-46915836632251736", "6332859396934509", "69205641746521000", "74652552604675296", "44693633913993832", "34270390868186952", "16607828438282012", "-81831395626068112", "37394337356090544", "-9015351533889770", "74666380882263184", "-3798931837081909", "48485711216926576", "27393363416194916", "-44075708836317064", "79644292593002320", "49279838800430296", "34158982336521148", "38116268813610080", "11347740888595582", "74912622570991520", "-33147331327199936", "42376220226287840", "-13113550841808320", "38394786417484280", "55052027106285096", "20499289035797120", "-19333563745021820", "-20788565278053284", "-74740111827850336", "-8531808853149414", "53769335150718688", "-58789897710084912", "38628429174423216", "-66560119390487672", "21851681172847748", "-69940894842147824", "-44843565672636032", "45361712574958800", "78106418251991264", "27105703949928284", "-20471900701522828", "-53365666419267656", "-14607578516006470", "44059813022613528", "53900927305221560", "-12341476976871490", "-75577408075332640", "32703645527362824", "43449521064758304", "7425032556056976", "-1009054481983184", "3295093774795532", "42916089296340944", "17786167562007904", "-17614707350730896"], ["-3311179578304291", "1166403293609619", "-38631930947303768", "-4090540111064911", "8112005889415741", "3332719206809997", "-75387232005596160", "-35149883478879928", "-82442767918109888", "43180316686630248", "25725245475769044", "-83333142101764672", "-69273784756660464", "71131274104118344", "-71524120867252352", "-28542019426822664", "-4644826054573059", "-23347657173871996", "-41888199746608736", "-25076027959585188", "26878573000431060", "-74368767440319056", "-54811794310808184", "-27639236301183700", "79968586564064032", "-39968848228454592", "78403070569038384", "-8129820227622986", "73918431997299200", "73955506086349488", "-61437092721462248", "59940189123153688", "-37781197577714920", "53498640656471256", "-24727109819650652", "-76049864292144768", "14843292534351348", "26188552379608156", "-10155767202377320", "42229846119880680", "-67425481975078584", "-32731533050537108", "-49729388207197192", "12198939919471740", "8612230420112610", "70844173431396488", "-37330519407987592", "-51059797406196592", "-61824172735214232", "-24501733481884004", "53191289305686952", "6041690707206726", "-29996812343597412", "72936475276947024", "-1539364457130432", "11175476014614106"], ["-34599889069795608", "31097121536731720", "36942951381206512", "70395976305007936", "78675314784049984", "-57647772133350376", "24929977953433992", "81687569618225104", "27525909245014192", "-50038490444421768", "37312000989913944", "-14577388763427734", "-7360875606536865", "-29542144387960432", "12532241642475128", "57137668132781984", "-1171968877315521", "2514928579330444", "67259788513183592", "-50921365618705752", "73137998580932624", "-27106568217277528", "-58638449758291248", "18102921545505524", "-14192685484886170", "-78775785863399504", "-66915929317474368", "48451453447341920", "-39581604301929472", "-16677148640155792", "-41306931525468824", "54553911089897152", "70733815431594848", "-32065756618976592", "67832514643669128", "3818012773990631", "20126774907112120", "-39571385830640792", "-21871447563171388", "7301211357116699", "-621929764747619", "-67359529435634616", "-83092868328094480", "-68442538380622864", "45748725533485416", "-34120779484510420", "-50666004419326784", "-84114335477352144", "-15187717974185944", "-68585887551307680", "53821951150894168", "3825910389423370", "77873647212982176", "-53040202707052232", "57112440466880800", "-49013376235961912"], ["-54662987589836120", "-43086819350719448", "-55397357791662216", "-7729560136795044", "32610427588224412", "13456378132104874", "61742793768644336", "-13079821132123470", "-25469940155744552", "36825843155384064", "13564738444983960", "-63446611166000368", "-84283277392387392", "-40985208004713056", "-26109309867024420", "50170443952083584", "-33614404499530792", "6443164311349392", "-38530886173248288", "5502157844603062", "-74769139289855952", "62138769775629040", "9128838777542114", "15474371612071990", "38702048361301424", "-90875379741191872", "-26097880676388740", "38817234337329864", "73214732110500336", "-67683272063732144", "-19031787291169168", "32506145536899568", "-735767127480357", "-73982313275337216", "18720166757702828", "71740373969078064", "-900744867976754", "5197194870561361", "9410571306943894", "-56100845336914064", "-46615652740001680", "-61022114008665088", "73352172970771792", "-81270173192024224", "50738576799631120", "82939863204956", "31901773065328600", "55936083197593688", "86164131760597232", "92087529599666592", "-48912547528743744", "-28518762439489364", "58921553194522856", "14938706532120704", "33819142729043960", "63669875264167784"], ["25888307020068168", "84500893950462336", "4320070147514343", "44591147452592848", "-206881493330001824", "123315230011940000", "-23497181013226508", "216784849762916576", "-58322638273239136", "81571705639362336", "212870389223098752", "-51080513745546344", "-55596768856048584", "26511201635003088", "40319129824638368", "-77023148536682128", "165809348225593568", "-71714684367179872", "30971121042966844", "-151046693325042720", "13953064568340778", "-220426872372627264", "182283461093902592", "74925497174263008", "57553499937057496", "112993106245994560", "-13305738568305970", "51515586674213408", "130306541919708256", "-31048242002725600", "37671521306037904", "-103655964136123664", "-76125830411911008", "111944057047367088", "-15558890067040920", "101424343883991248", "-101762428879737856", "-23245835676789284", "-159597098827362048", "-37131950259208680", "211469903588294976", "-43150108307600024", "21855913102626800", "26725530624389648", "-8626048453152180", "-30204314738512040", "81970863044261936", "-142798379063606256", "-115241140127182000", "-180973306298255936", "197639957070350656", "-101388260722160336", "-146665632724761952", "173698842525482176", "-5115129053592682", "20911365747451784"], ["-58497011661529544", "119239024817943568", "-59165257960557936", "-46022914350032808", "-202878117561340320", "201306819915771488", "-55156908929347992", "-41588440537452696", "-19173491746187212", "192374601960182176", "24508431553840636", "169486954808235168", "-52972700446844104", "-31395882368087768", "149751082062721248", "-73067419230937952", "98574213683605200", "246541559696197504", "82255415618419648", "31414750963449480", "-94421342015266416", "-98284691572189328", "58377224951982496", "44461570680141448", "114724472165107728", "186690807342529312", "-32137371599674224", "-67085057497024536", "173603743314743040", "-3012217581272125", "-30384618788957596", "-172433450818061824", "-217780709266662592", "252192586660385120", "-188091039657592768", "217661201953887936", "-86288891732692720", "-101721033453941344", "-112451069056987760", "-25336775928735732", "-60857854783535000", "76638534665107728", "31161030754446984", "-29040127992630004", "-97365379333496096", "220362260937690720", "18944855779409408", "-91074243187904352", "-33534202724695204", "12589829973876476", "74693605303764336", "46031367033720016", "-130030661821365360", "69750458002090456", "-2751804189756512", "104080453515052800"], ["-60474380850791928", "6050568539649248", "-17777683213353158", "-58150228112936016", "72722382843494416", "-48410136252641680", "-149328336119651808", "-156025364995002752", "-103412762284278864", "-68274475634098056", "76085008680820464", "130018457770347600", "45214846730232240", "-25418158620595932", "46461652964353560", "-108728431165218352", "116837486624717712", "94741560518741600", "2203192096203565", "-15166634693741798", "88968105614185328", "-67829608917236328", "46944942325353624", "-11042455211281776", "131282120943069456", "-55303804576396944", "-86965233087539680", "29354063794016840", "29879419133067132", "143888115882873536", "-17689375206828118", "-158251628279685984", "-105859689414501184", "-32594509422779084", "-26477783918380736", "-103462584316730496", "31729396432638168", "-134488284587860112", "-40136400610208512", "-14217467047274112", "-85591256618499760", "-26618780568242072", "89579865336418144", "63318401575088504", "26951123028993608", "82937136292457584", "47456376254558560", "-26124328374862672", "-26783594861626624", "63792996108531952", "52043050527572632", "6102418992668390", "-73738098144531248", "45054364949464800", "152462705969810496", "-45257959514856336"], ["-132617831230163568", "149727478623390208", "-90368367731571200", "-35637706518173216", "66785775125026704", "-103549905121326448", "-21293353289365768", "-160990267992019648", "-47016575932502744", "96282236278057104", "85158772766590112", "103515528142452240", "-8687044493854046", "-48457197844982144", "115779802203178400", "-61337478458881376", "62985047698020936", "145217850804328928", "59941157698631288", "-26022091507911684", "-156337425112724320", "-71452021598815920", "-16920667141675950", "29829068109393120", "193717688322067264", "-71428366005420688", "-53080793470144272", "83393193781375888", "63728101551532744", "145095109939575200", "113172017037868496", "42221903800964352", "-135397076606750496", "99490389227867120", "-52224647253751752", "95551230013370512", "-106138937175273888", "-120951972901821136", "-69103524088859560", "-8943971246480942", "-84026917815208432", "37661548703908920", "96924878656864160", "-194792464375495904", "-14349715784192086", "-23333854973316192", "83992376923561104", "45347329229116440", "92520892620086672", "237868219614028928", "112202487885952000", "98941139876842496", "-79674273729324336", "110361516475677488", "-9690132923424244", "-55528216063976288"], ["-145902499556541440", "-40048941969871520", "-145712628960609440", "-196073472499847424", "-76924875378608704", "29548479244112968", "-118110969662666320", "-159456536173820480", "-102095961570739744", "-48151817172765728", "107294350862503056", "20688930526375772", "-131165191531181328", "-191128164529800416", "149935096502304064", "-78857868909835808", "261470019817352288", "196068480610847488", "193640723824501024", "86389347910881040", "-100993305444717408", "-196519136428832992", "72295509278774256", "-64953766763210296", "138829350471496576", "-17330385744571686", "-157715067267417920", "41881144046783448", "49802955240011216", "121879339218139648", "254860103130340576", "114405661821365360", "-54438501596450808", "101336196064949040", "-153988510370254528", "134500056505203248", "-101509526371955872", "-150620490312576288", "-105966158211231232", "-108889192342758176", "-20720874890685080", "151903331279754624", "30413761734962464", "-100673325359821312", "-20754991099238396", "35011120140552520", "167169585824012768", "-147654429078102112", "105389937758445744", "381235361099243136", "215260341763496384", "-26362767443060876", "-193586841225624096", "109637990593910224", "62765024602413176", "-137623921036720272"], ["-13920467346906662", "-16506530344486236", "54209049791097640", "33758230507373808", "194051191210746752", "-50729867070913312", "-114903554320335392", "-107990354299545296", "-30203182250261308", "-2401663223281502", "97591161727905280", "-115178942680358880", "77049516141414640", "-30978813767433168", "343525677919387840", "-118786886334419248", "183421909809112544", "201539933681488032", "150084525346755968", "78544124960899360", "-88730439543724064", "-251964807510375968", "12581563554704190", "-39729885756969448", "200561985373497024", "-155889764428138720", "-259708821773529056", "87659925222396848", "2299101790413260", "318906009197235136", "248209387063980096", "29059641063213348", "-60531031340360640", "-27116684243083000", "-9816063567996026", "-23513939231634140", "-123358152806758880", "-219314143061637888", "-13473051600158214", "-65540648996829984", "-72537831962108608", "163649648427963264", "52971642464399336", "-267242044210433952", "-83880268037319184", "9007449261844158", "233814164996147168", "363528233719989", "-58310564607381824", "343351334333419776", "64594171941280368", "150494635105133056", "-150995254516601568", "211021572351455680", "28485808521509172", "-261932730674743648"], ["8768212981522083", "-59933044016361240", "-22954713553190232", "1304825884290039", "286586821079254144", "-117080882191658016", "-265380680561065664", "-154163137078285216", "-99031336605548864", "-30502591282129288", "-14746270142495632", "-153826549649238592", "242854535579681408", "-8671866729855537", "358018517494201664", "-357337117195129408", "140577986836433408", "115753397345542912", "125945046544075008", "-86534611880779264", "105553992092609408", "-320246666669845568", "-59141334146261216", "8135106414556503", "300626993179321280", "-154329687356948864", "-86011536419391632", "33198501914739608", "15729941427707672", "377697020769119232", "310637742280960064", "-95350429415702816", "-88236697018146512", "-12941421009600162", "-29126016423106192", "-137179568409919744", "-236393168568611136", "-170388400554656992", "181086584925651552", "-134192511439323424", "-120641946792602544", "294635325670242304", "75415477156639104", "-77121891081333168", "-23726895451545716", "-108947627246379856", "59570912271738056", "121103785932064064", "-142605558037757872", "443475127220153792", "75279787182807920", "312388449907302848", "-204923987388610848", "246549427509307872", "20484037697315216", "-444162398576736448"], ["73085047304630272", "-18775779753923416", "-96323564648628240", "86954653263092048", "194915592670440672", "-58830041438341144", "-266820162534713760", "-160447806119918816", "-121803686022758480", "-238638833165168768", "-20257320255041124", "-339310318231582656", "173409536480903616", "42264759540557864", "329823732376098624", "-379130035638809216", "161306858062744128", "84883928298950192", "270688176155090336", "-7557601202279329", "107900194823741920", "-234126448631286624", "-51267683506011960", "-5037625320255756", "331872105598449728", "85039690136909488", "-82611076533794400", "53620997816324232", "22362239658832552", "270208328962326048", "234653621912002560", "-131416529417037968", "-162830367684364320", "188399136066436768", "-30058035627007484", "-77549248933792112", "-222939804196357728", "-166517645120620736", "38352843374013904", "-183699771761894240", "-260863423347473152", "293642640113830592", "-64551703631877896", "-213023811578750624", "-64590431749820712", "-261176228523254400", "51075465977191928", "144727647304534912", "-223988771438598624", "269553244113922112", "-26431811973452568", "383090108633041408", "-283115953207016000", "315016895532608064", "118686348199844368", "-405915766954422016"], ["30986171215772628", "-120710924267768864", "-220183253288269056", "37098240107297896", "187643259763717664", "-74447333812713616", "-182574152946472160", "-249578669667243968", "-101035133004188544", "-213553100824356064", "59497654438018800", "-199207767844200128", "19927499815821648", "-151063024997711168", "444879233837127680", "-192494392395019520", "329594373703002944", "73184154927730560", "282727092504501344", "-5338976159691811", "-51272157579660416", "-135230079293251040", "-197083815932273856", "-32555520534515380", "509590864181518528", "-21169552579522132", "-160689473152160640", "-69754496216773984", "173859581351280224", "277807861566543584", "280709832906723008", "49117706716060640", "-322993248701095552", "202386558055877696", "-42890597134828568", "115892559289932256", "-395174890756607040", "-192900314927101120", "-39510354399681088", "-212838947772979744", "-203127369284629824", "374804556369781504", "-73449082672595984", "-78265339136123664", "-53991533815860752", "-140258759260177616", "214304402470588672", "-111873574554920192", "27940301224589348", "328238844871521024", "65071009099483488", "250445336103439328", "-341672152280807488", "269787788391113280", "77989935874938960", "-197875127196311936"], ["-8560097776353359", "-322225183248519872", "-310254752635955840", "97887523472309120", "118435211479663856", "-70929020643234256", "-448161035776138304", "-66340565681457520", "-267447590827941888", "-2541349502280354", "-7119213230907917", "-237444713711738592", "49337677657604216", "-103720471262931824", "237955927848815904", "-114756502211093904", "67418776452541352", "-120711110532283776", "151817768812179552", "30707269906997680", "24399466812610628", "-115241244435310368", "108304746448993680", "-109862066805362704", "191005185246467584", "130443409085273744", "47980874776840208", "-60789681971073152", "328776359558105472", "107598960399627680", "60265671461820600", "39434310048818592", "-46173781156539920", "24890771135687828", "168901234865188608", "-4589790478348732", "-264707833528518688", "-124563381075859072", "-4383722785860300", "-375623315572738624", "-125871434807777408", "237271949648857120", "-159012198448181152", "-124602086842060096", "-166346684098243712", "-326157987117767360", "132611602544784544", "-84724515676498416", "23952908813953400", "185497120022773728", "40392074733972552", "377309620380401600", "-292102754116058368", "219994619488716128", "238190770149230944", "-260650932788848864"], ["-103475153446197504", "18812105059623720", "-316148847341537472", "70216439664363864", "-73279783129692080", "158884063363075264", "-464934855699539200", "-112397320568561552", "-258436679840087904", "-167073860764503488", "-131085336208343504", "-132908836007118224", "-110076516866683952", "-164778783917427072", "-24342248216271400", "-1344778342172503", "-75292997062206272", "-40632408112287520", "-47368515282869336", "65980181097984312", "-35509090870618820", "25208733975887300", "191942870616912832", "-337166458368301376", "-63768252730369568", "259274214506149280", "26383990421891212", "-130931794643402096", "101374842226505280", "93468122184276576", "212856248021125792", "-193112120032310496", "-63785314559936520", "60220409184694288", "78660070896148688", "-66887483000755312", "-180715382099151616", "-174500644207000736", "-200042411684989920", "-486714810132980352", "-227975130081176768", "23771744221448900", "26939785107970236", "-14510289765894412", "-164632990956306464", "-321609079837799104", "-247931823134422304", "56340988725423816", "220422595739364640", "117371521890163424", "-5438825115561485", "632989918813109", "-359195560216903680", "76113447546958928", "349980115890502912", "-145364984869956960"], ["-153498128056526176", "21600440144538880", "-472028970718383808", "263441830873489376", "232053637504577632", "-144585669040679936", "-329703807830810560", "-300686210393905664", "-267278671264648448", "-168474093079566944", "-163797900080680832", "-146823331713676448", "7268099114298820", "18165323883295060", "328143000602722176", "-319935739040374784", "240512520074844352", "31572166830301284", "56197952479124072", "35794246941804884", "98057359457015984", "-123316712677478784", "62457859516143800", "-319608747959136960", "288727968931198144", "115988686680793760", "30179250985383988", "-171771556138992320", "267543673515319840", "235872343182563776", "159385487437248224", "-186650693416595456", "-176125735044479360", "-119239896535873408", "89694425463676448", "-111261077225208288", "-74174836277961728", "-243895396590232864", "-56160222738981248", "-314873635768890368", "-258544772863388064", "125314801931381232", "86130209267139440", "3413184778764844", "-300986737012863168", "-250554472208023072", "-22320305928587912", "102007903158664704", "174696937203407296", "307009577751159680", "77848590910434720", "170041784644126880", "-254041194915771488", "203087255358695968", "192414626479148864", "-421825468540191680"], ["-176917120814323424", "-403092853957787", "-431407123804092416", "209123969078063968", "-10950272902846336", "-238778665661811840", "-264225542545318592", "-323966145515441920", "-113738551735877984", "-93635119497776032", "-61044320464134216", "72898559272289280", "-150647103786468512", "84400162100791936", "249016106128692640", "-64931035041809080", "61160948127508160", "145414382219314560", "52687570452690128", "40620554238557816", "112768113613128656", "93841426074504848", "-183240443468093888", "-241843089461326592", "-13481717556715012", "30878582969307900", "325858473777771008", "-315578818321228032", "-32110907137393952", "118101134896278384", "242381125688552864", "-258766531944274912", "-53280968219041824", "124680407345294960", "153520017862319936", "54353505373001096", "-36137081682682040", "-64838759601116184", "-156973436474800096", "-239364162087440480", "-233802720904350272", "222909003496170048", "177328079938888544", "-157710954546928416", "-138462975621223456", "-189682826399803168", "-205360248684883104", "200417384505271904", "395858198404312128", "48863083124160768", "-47614052891731264", "-38769900798797608", "-166306212544441216", "38050413131713864", "182866215705871584", "-264262706041336064"], ["-280125170946121216", "-43456088751554488", "-119045585393905632", "54783388972282408", "-199765324592590336", "-63061527907848360", "-200397282838821408", "-216870918869972224", "-109672978520393376", "22472918033599852", "74264571070671088", "81999972462654112", "-118988581001758576", "196889430284500128", "205258294939994816", "81173993647098544", "96227854490280144", "384540587663650496", "238152250647544864", "-73216937482357024", "-117929145693778992", "176823109388351456", "-26759531348943712", "-263722896575927744", "9029362350702286", "-88523499667644496", "290081828832626368", "-413496941328048704", "-81572733819484704", "134789437055587776", "158878982067108160", "-330244153738021824", "-182994991540908800", "383012175559997568", "40762312710285184", "19836232066154480", "-245133563876152032", "-9852125309407712", "-144913807511329664", "-252093732357025152", "-58094829320907592", "202630475163459776", "395088255405426048", "-95952533185482032", "-170450568199157728", "-201919049024581920", "-262976467609405504", "160286292433738720", "395423173904418944", "21164830774068832", "-75632043182849888", "-101183369755744928", "-16827426850795746", "-115803837776184080", "145409345626831040", "29405383393168448"], ["-303711533546447744", "109525464475154880", "-25381451472640036", "-152503043413162240", "-158301740884780896", "-253685951232910144", "-622735766228288", "-185743898153305056", "-269077420234680160", "-17804926261305810", "175960838794708256", "-175983816385269152", "-199815928936004640", "-63636779785156248", "4271154757589102", "151716455817222592", "257920861244201664", "476814895868301376", "350199967622756928", "-166159525513648992", "-175739616155624384", "-8729537948966026", "69607734680175784", "-86658760905265808", "92972651124000544", "-232560649514198304", "-2942128106951713", "-217441678047180160", "-161809042096138016", "234889775514602656", "130529627203941344", "-74663028120994560", "-143492072820663456", "9374301880598068", "212319582700729376", "-11050859466195106", "-254253029823303232", "-42084824293851856", "25657812133431436", "-172564372420310976", "25775151327252388", "250718981027603136", "366570740938186624", "-119249865412712096", "55310923606157304", "-162821725010871872", "-155380859971046432", "134565353393554688", "272768318653106688", "152289614081382752", "80892503261566160", "-173888787627220160", "62783971428871152", "-152586951851844800", "21344007924199104", "114045120775699616"], ["-99797457456588752", "-183595657348632800", "236153081059455872", "-90836115181446080", "-301662743091583232", "-51182851195335392", "202571749687194816", "-59144552797079088", "-156007632613182080", "50997655838727952", "220511421561241152", "62241956591606144", "-191036507487297056", "-62784679234027864", "-69526046514511112", "160093978047370912", "105103045701980592", "520521759986877440", "350742518901824960", "-294460713863372800", "-116478860378265376", "-32809272408485412", "217310234904289248", "82215458154678352", "32896772027015688", "-220031112432479872", "-204508483409881600", "-111264400184154512", "-303032279014587392", "77906385064125056", "29804106801748276", "115142613649368288", "-150502502918243424", "-136673197150230400", "296496510505676288", "-17190245911478996", "-118551149964332576", "2533081686124205", "114617638289928432", "133095324039459232", "56404981762170792", "194888085126876832", "399839162826538112", "5866955034434795", "112326078116893776", "-77078655362129216", "-247268334031105056", "90491898357868192", "243941396474838272", "-25569003075361252", "18291922286152840", "-187802866101264960", "-37828557193279264", "7806092035025358", "87536059319972992", "-40481667965650560"], ["-93031898140907280", "-156696408987045280", "249207183718681344", "66565938293933872", "-285236120223999008", "-143160104751586912", "35720977932214736", "-160620883107185376", "-97309812903404240", "-68635948002338408", "86401268839836128", "290497452020645120", "-290252715349197376", "-184589892625808704", "-7140177302062511", "134247288107872016", "115085870027542112", "477856934070587136", "169361636042594912", "-365769684314727808", "-225775450468063360", "185324981808662400", "-336253702640533440", "-155577808618545536", "-46566765755414960", "-199719175696372992", "67877337336540224", "-224964246153831488", "-382454127073287936", "-136937573552131648", "132817938923835760", "-75217261910438544", "-46110033988952640", "316029995679855360", "-132775753736495968", "176209181547164928", "-200976073741912832", "-156508833169937120", "-58364652097225192", "-395708620548248320", "116137728095054624", "66354684531688688", "424087047576904320", "38880545645952224", "166604876518249504", "489019542932510400", "-178374305367469792", "72058849036693568", "286387890577316288", "-136346921324729920", "36992650479078296", "-174178391695022592", "-367158055305480960", "-72765387594699856", "206941366195678720", "88095635175704960"], ["-126237362623214720", "-82986272871494288", "159797295928001408", "34909605979919432", "-31505972146987916", "-160224020481109632", "160363018512725824", "-75059764087200160", "28264248743653296", "-287947595119476320", "-107810020446777344", "212018027901649472", "-104520738124847408", "49817889928817752", "186080142855644224", "-114327423274517056", "35123292356729508", "182734131813049312", "73431849479675296", "-356944352388381952", "-27199512347579004", "-35013038665056228", "-367134928703308096", "-208879634737968448", "-23438192903995512", "-172575429081916800", "51465861499309536", "-93022435903549200", "-279695510864257824", "-123225443065166480", "128057271242141728", "-53497627377510072", "-78253127634525296", "353842586278915392", "-187641382217407232", "19244454801082612", "85671298205852512", "-206758558750152576", "-132846161723136896", "-222701117396354688", "-58568414300680160", "156813561916351328", "212979167699813856", "56287452578544616", "169846728444099424", "348427474498748800", "-95060184597969056", "26171792298555376", "41891783475875856", "42979106307029728", "89076258242130272", "51444452255964280", "-287192136049270624", "77650904655456544", "169812738895416256", "75423061847686768"], ["-21966794505715372", "-101630993187427520", "167048886418342592", "48841968178749088", "205272227525711072", "-184183567762374880", "9862394072115422", "-176931485533714304", "171141669154167168", "-268398880958557120", "-47483511269092560", "62662355601787568", "-157678931951522816", "11086993850767612", "73354817926883696", "-154033809900283808", "76172895729541776", "30510185286402704", "97351804375648496", "-224316984415054336", "79857669770717616", "-156859621405601504", "-219206705689430240", "-135104045271873472", "65576642751693728", "-130672156810760496", "-105030857026576992", "-23085629567503928", "-226007178425788864", "-46519868075847624", "148340389132499680", "-55026080459356304", "-113448575139045712", "197757855057716384", "98120555281639104", "84201261401176448", "41445646435022352", "-27326941490173340", "-14163340441882610", "-217566549777984608", "-24171231314539908", "40903583168983456", "180747807025909408", "3913082648068666", "-38666956126689912", "390966325998306304", "162430673837661728", "-29436381533741952", "-36989882588386536", "261330038309097280", "68331494927406312", "176549822092056288", "-174805983901023872", "39859343320131304", "226768493652343744", "-82704767584800720"], ["-115643627941608432", "163335695862770080", "134813457727432256", "-75606264173984528", "44810757040977480", "-159409523010253920", "-164889261126518240", "-151105523109436032", "66633462905883792", "-190935000777244576", "174273431301116928", "11904380284249782", "-56697193533182144", "-180491566658020032", "55758602917194368", "-82012370228767392", "124999552965164192", "160967230796813952", "149386286735534656", "-282401651144027712", "-164431035518646240", "16558451578021050", "-227828890085220352", "-133657038211822512", "70391282439231872", "-92565976083278656", "-104793526232242592", "-7574476301670074", "-68414948880672456", "-72881728410720832", "130295321345329280", "216146215796470656", "-135003030300140384", "200210928916931168", "-57826966047286984", "104523718357086176", "-97237162292003632", "-101564131677150720", "-33448439091444016", "-202175334095954880", "14788582921028138", "39210833609104160", "211438059806823744", "-65284505486488344", "-73066167533397680", "303207516670227072", "268135398626327520", "-205258309841156000", "88642641901969904", "230514809489250176", "238105475902557376", "39702288806438448", "-123767033219337456", "112198993563652032", "296636939048767104", "55445723235607144"], ["61371941119432448", "-79608790576457984", "110776811838150032", "-22131657227873804", "-26330171152949332", "-206151187419891360", "-123228155076503760", "-215723052620887744", "-80037727952003472", "-193608343601226816", "166912749409675584", "-120102845132350928", "-128143250942230224", "-205866292119026176", "266108363866806016", "-87008439004421232", "189043849706649792", "296517968177795392", "191445708274841312", "-97002565860748288", "-176682844758033760", "-217568278312683104", "-62932111322879792", "-114829711616039280", "-7405337411910295", "-66633030772209168", "-57750683277845384", "11333245784044266", "-85288733243942256", "4063712432980537", "128723755478858944", "-10492234490811824", "-314459443092346176", "137961775064468384", "-97510710358619696", "77683851122856144", "-124315306544303888", "-131082370877265936", "-56911468505859376", "-344332933425903296", "-37410493940114976", "191348671913146976", "234204620122909536", "-110458716750144960", "-106097906827926640", "253882944583892832", "15122042037546634", "-127441436052322384", "29549526050686836", "200712516903877248", "218404322862625120", "63039995729923248", "-283364802598953248", "77297933399677280", "120713330805301664", "64132332801818848"], ["25239109992980956", "-169965445995330816", "-107664875686168672", "-54286237806081768", "106530047953128816", "-204047963023185728", "8889120072126389", "-72045467793941496", "-92369399964809424", "-143479272723197936", "-6879625841975212", "-75045444071292880", "-25296537205576896", "-43697834014892576", "131263062357902528", "-158007383346557632", "92974588274955744", "-59740677475929264", "13192294165492058", "-152690440416336064", "67711427807807920", "-98057284951210016", "97610846161842352", "42860310524702072", "5681953392922878", "-8880241774022579", "-59073187410831448", "-65089337527751920", "56140940636396408", "1682570320554077", "34341920167207716", "11921416036784648", "-57257179170846936", "254448324441909792", "-57577993720769880", "-39020314812660216", "-69348931312561032", "-72771087288856512", "-7918467745184898", "-98859667778015136", "-124413371086120608", "155380517244338976", "-17039224505424500", "-35372197628021240", "-94795905053615568", "68758010864257816", "21748645231127740", "-16308689489960670", "-89256301522254944", "186861783266067520", "-59477865695953368", "149770230054855360", "-25924818590283392", "126205950975418096", "27432149276137352", "-58919578790664672"], ["40205035358667376", "-21102847531437872", "-77614009380340576", "20655153319239616", "11590862646698952", "-121074229478836064", "-32054044306278228", "-15626292675733566", "-39533231407403944", "-53553827106952664", "14472031965851784", "-1131677418015897", "51689628511667248", "109230794012546544", "94463504850864416", "-142556682229042048", "-101290181279182432", "-101152785122394560", "42500086128711704", "-52336048334836960", "56948766112327576", "-52948482334613800", "76660476624965664", "47913894057273864", "32173991203308104", "31433574855327608", "-98871879279613488", "31847864389419556", "54134316742420200", "115542627871036528", "39253838360309600", "14184167608618736", "68436011672019960", "-37843063473701480", "-54633509367704392", "-62348015606403352", "100318476557731632", "4880598280578852", "-17382666468620300", "2864098874852061", "-49080502241849896", "45860387384891512", "4245982971042394", "62264323234558104", "-47341063618659976", "-41810810565948488", "26123125106096268", "-30348552390933036", "-78365586698055264", "20528543740510940", "25353197008371352", "162336155772209152", "-128794848918914800", "132286146283149712", "-53843103349208832", "-156419724225997920"], ["22913768887519836", "61858400702476504", "49518778920173648", "-11072091758251190", "-2604879438877105", "-83512410521507264", "18325805664062500", "61061412096023560", "47402486205101016", "71930974721908568", "-76206952333450320", "15946932137012482", "-49988497048616408", 