{"dense_42_weights": [["-2038516104221344", "76503798365592960", "76735109090805056", "-16894824802875518", "-60941964387893680", "-78338645398616784", "39808429777622224", "72800442576408384", "-7245168089866638", "16577444970607758", "32253839075565340", "-35116977989673616", "22055819630622864", "-29720935970544816", "-1189276576042175", "-76859369874000544", "-35123709589242936", "54997563362121584", "-2445951104164123", "-3973186016082763", "46579003334045408", "-43624468147754672", "54831504821777344", "-36765310913324360", "48362001776695248", "-17449818551540374", "-30814599245786668", "78412741422653200", "-67170903086662296", "13459928333759308", "-36741435527801512", "17685875296592712", "66729724407196048", "44615402817726136", "-43579313904047016", "-17432957887649536", "-61510697007179264", "71213424205780032", "36327168345451352", "-69463402032852176", "-59344768524169920", "8694462478160858", "80736666917800896", "-67418828606605528", "-65854460000991824", "-13528093695640564", "16528561711311340", "-19071236252784728", "-41825756430625912", "47105312347412112", "67884355783462528", "-45995566993951800", "-35146337002515792", "-21969355642795564", "1739814877510070", "-54265890270471576"], ["-80623865127563472", "-65760664641857144", "-69012962281703952", "13417027890682220", "-21767713129520416", "31055614352226256", "75660869479179376", "4788480699062347", "-16224414110183716", "-56169383227825168", "19863031804561616", "46479806303977968", "-73647938668727872", "45546442270278928", "65271556377410888", "-63748687505722048", "23912586271762848", "-15350207686424256", "18313005566596984", "13686090707778930", "-67824251949787136", "-15647381544113160", "-81256292760372160", "23505151271820068", "82300141453742976", "-78514292836189264", "66113770008087160", "22387810051441192", "-60890298336744312", "-62104739248752592", "1320332288742065", "32604888081550600", "82755759358406064", "-44720068573951720", "-21825283765792848", "-62529183924198152", "-64176306128501896", "-21513096988201140", "32911054790019988", "29225185513496400", "-11822700500488282", "54560214281082152", "-63714005053043368", "78934326767921440", "55050879716873168", "83325669169425968", "37572808563709256", "-30418287962675096", "26299178600311280", "20932331681251524", "4541359841823578", "-44415961951017376", "47842293977737424", "81302493810653680", "-59199325740337368", "81388980150222784"], ["20445324480533600", "-26016872376203536", "16622900962829590", "20022198557853700", "5558252334594727", "22108815610408784", "-82391969859600064", "-24844825267791748", "35850219428539276", "8309133350849152", "-5802370607852936", "9761407971382142", "-10691694915294648", "7150724530220032", "78978478908538816", "-67989885807037352", "16664892435073852", "71981534361839296", "-37431433796882632", "74843078851699824", "-76008915901184080", "66157251596450808", "-53368486464023592", "-5512364208698273", "41366964578628544", "-22590823471546172", "82274153828620912", "37728503346443176", "25737658143043520", "-64930163323879240", "32474361360073088", "-59385050088167192", "-81529103219509120", "-47972485423088072", "-11721804738044738", "24317421019077300", "46731948852539064", "-66564328968524936", "-16292199492454528", "61199560761451720", "-48641607165336608", "-17933115363121032", "-60403332114219664", "63890576362609864", "61549350619316104", "-67960888147354128", "-73854312300682064", "-47658730298280712", "80894201993942256", "28198979794979096", "23875974118709564", "-60935758054256440", "14051534235477448", "58321222662925720", "49936920404434208", "77420324087142944"], ["58872848749160768", "-19130878150463104", "-54003778845071792", "29586397111415864", "63066244125366208", "59793651103973392", "44250771403312680", "-19661888480186464", "-9969718754291534", "-47973230481147768", "-76991230249404912", "-34099038690328600", "-37735495716333392", "1045159995555877", "17407566308975220", "81128522753715520", "9636640548706054", "61621844768524168", "44143319129943848", "-64624041318893432", "-74802614748477936", "-33013455569744112", "29447302222251892", "16468413174152374", "56924119591712952", "-4751943051815033", "-46185981482267376", "-78084878623485568", "-911809504032135", "-33235065639019012", "-20218677818775176", "6958797574043274", "37581190466880800", "-71381658315658568", "-69292746484279632", "-64227223396301272", "70702522993087768", "-14563567936420440", "-31198620796203612", "31426236033439636", "-67528955638408664", "41201472282409664", "-70160910487174984", "29501304030418396", "53784146904945376", "-65128095448017120", "70341512560844424", "33426553010940552", "-34010358154773712", "-34551408141851424", "-62476389110088352", "54432615637779232", "-3410294651985168", "-28680548071861268", "28918057680130004", "-30666377395391464"], ["11452220380306244", "-4670254886150360", "12115396559238434", "-19960455596446992", "-33391185104846956", "-44602591544389728", "-43353531509637832", "6172627210617065", "-79792410135269168", "62452778220176696", "22024422883987428", "-70589825510978696", "-10813586413860322", "78889161348342896", "39928182959556576", "-63210614025592800", "-71321874856948856", "40105849504470824", "-20688377320766448", "-61430782079696656", "-14371156692504882", "-56674767285585400", "-50947561860084536", "-82378245890140528", "-45752838253974912", "-27103081345558168", "-19985601305961608", "-66247470676898960", "-57646866887807848", "74031904339790352", "28430223464965820", "15276677906513214", "16551010310649872", "6283007562160492", "60019269585609440", "61014100909233096", "42674914002418520", "50262585282325744", "57909727096557616", "-75339473783969872", "-28162188827991484", "66595256328582760", "6919749081134796", "77470868825912480", "73587849736213680", "-28069961816072464", "3156043589115143", "-59585444629192352", "82610413432121280", "-79242877662181856", "80840975046157840", "-58191683143377304", "-76721765100955968", "61915978789329528", "65670832991600040", "-62093861401081088"], ["-70167720317840576", "28113283216953276", "-23788299411535264", "-70863299071788784", "-28912253677845000", "46055242419242856", "861130654811859", "26915766298770904", "-39953574538230896", "35474985837936400", "31387321650981904", "59118971228599552", "39249554276466368", "-83248406648635872", "-12333661317825318", "34502625465393068", "61805009841918944", "-36465417593717576", "24109609425067900", "-21952711045742036", "-74066109955310816", "-22031355649232864", "-82474924623966224", "75632721185684208", "-54700061678886416", "67466229200363160", "-54704979062080384", "68104341626167296", "57812049984931944", "82699924707412720", "-27327049523591996", "-13982400298118592", "50177246332168576", "-29529009014368056", "83990335464477536", "-60964569449424744", "50793007016181944", "-6621062755584717", "21191887557506560", "21320641040802000", "-52183683961629864", "-38626208901405336", "-73159582912921904", "-18226183950901032", "46839907765388488", "5145698785781860", "41664317250251768", "80224797129631040", "-11432327330112458", "-56199267506599424", "-54811410605907440", "-13930127024650574", "82957118749618528", "72142019867897040", "30652575194835664", "-59786498546600344"], ["60153231024742128", "-61626601964235304", "25491364300251008", "-39198189973831176", "12987129390239716", "-34442234784364700", "2179086208343505", "-74701301753520960", "38267843425273896", "21086744964122772", "35971760749816896", "-53535994142293928", "-49328200519084928", "-50197716802358624", "50575166940689088", "75921446084976192", "44430404901504520", "27716815471649168", "-45317355543375016", "-17842561006546020", "20934045314788820", "596888363361358", "-16634106636047364", "7480002939701080", "-49711152911186216", "-47778442502021792", "55699020624160768", "-33802166581153868", "30963063240051268", "58300092816352848", "-6883196532726288", "54437950253486632", "-55561296641826632", "-62187053263187408", "55884703993797304", "3345817327499389", "-4471354186534881", "-37305455654859544", "-55152595043182376", "-16171604394912720", "-75301371514797216", "-2461530268192291", "47420114278793336", "65127775073051456", "-23540049791336060", "-58165084570646288", "-57370729744434360", "-29255028814077376", "80805882811546320", "27342885732650756", "-49748331308364872", "-13209991157054902", "9295657277107238", "2102576196193695", "-13027727603912354", "-59292219579219816"], ["49964338541030880", "-48547167330980304", "-29193025082349776", "29754281044006348", "40395244956016544", "-30913759022951128", "63232392072677616", "53737461566925048", "-20756117999553680", "505402684211730", "28394885361194612", "48067495226860048", "83764880895614624", "26883669197559356", "-8702442049980164", "-70431426167488096", "-54460357874631880", "25147601962089540", "67515701055526736", "-35674549639225008", "-76980553567409520", "35541757941246032", "31261004507541656", "51255717873573304", "43978706002235416", "80279916524887088", "-31677447259426116", "8963227272033691", "-79677902162075040", "28816767036914824", "80042093992233280", "31702995300292968", "56477323174476624", "65350890159606936", "33163473010063172", "25474391877651216", "-7613793015480042", "-70846736431121824", "56577682495117184", "17804622650146484", "-76785862445831296", "40651082992553712", "47540873289108280", "-24184972047805788", "53108647465705872", "-22753875702619552", "30086860060691832", "16440220177173614", "-67806482315063480", "52280604839324952", "-17318278551101684", "-71256570518016816", "-58088313788175584", "-51071524620056152", "17944522202014924", "-38037262856960296"], ["-50427265465259552", "3099158406257629", "-42651705443859104", "-59501476585865024", "-7425636053085327", "-46856313943862912", "-79002127051353456", "31641438603401184", "-58770131319761280", "73629900813102720", "-62539942562580112", "67447200417518616", "6918944418430328", "81304833292961120", "73265790939331056", "-77940523624420", "-2343893051147461", "28221912682056428", "-3281176090240478", "71361467242240904", "-20096287131309508", "-58673150837421416", "-7478572428226471", "-84258146584033968", "-4279404878616333", "-66358111798763272", "-23258149623870848", "-47642711549997328", "27232162654399872", "71366205811500552", "-72352230548858640", "6411403417587280", "-12780934572219848", "-59777773916721344", "49928054213523864", "-31010318547487260", "63958749175071720", "544309616088867", "4010401666164398", "58820381760597232", "80327332019805904", "73576629161834720", "-13857729732990264", "7119700312614441", "68023055791854856", "45500054955482480", "-30517306178808212", "21328061819076540", "15130713582038880", "332176685333251", "-27463808655738832", "-16737535595893860", "-6147272884845734", "41633307933807376", "55647686123847960", "-19739069044589996"], ["-81565737724304192", "13657458126544952", "16242250800132752", "5802646279335022", "38825154304504392", "-16161628067493438", "-41779287159442904", "41126817464828488", "-11094577610492706", "83922192454338080", "11547707021236420", "21718807518482208", "66793516278266904", "2350322902202606", "34496374428272248", "14113433659076690", "-67887522280216216", "70766985416412352", "42453423142433168", "-57821951806545256", "36301799118518832", "80285906791687008", "54124534130096432", "-9316436946392060", "49090668559074400", "42577937245368960", "-2306111156940460", "53761214017868040", "-72853602468967440", "-75488626956939696", "3548525273799896", "-38320109248161312", "-13190180063247680", "49165442585945128", "898167490959167", "69006681442260744", "72197631001472480", "-415854156017303", "59836730360984800", "-66355936229228976", "-56082800030708312", "-23596711456775664", "-15609413385391236", "66837951540946960", "11293858289718628", "80589532852172848", "79558819532394416", "-12801587581634522", "-65727658569812776", "55623620748519896", "-20362064242362976", "30195049941539764", "-83698578178882592", "-9358949959278106", "-70549629628658296", "-6893068552017212"], ["65525427460670472", "68065702915191648", "8941382169723511", "-74642442166805264", "-26024471968412400", "1147828996181488", "-22614419460296632", "-7115527987480164", "-10126791894435882", "-17310701310634614", "-65297193825244904", "11259466409683228", "29371917247772216", "75834766030311584", "5547530949115753", "-30734565109014512", "60362488031387328", "-42465638369321824", "76250776648521424", "11773549020290374", "-49884624779224392", "22201403975486756", "10921627283096314", "-67357152700424192", "815853476524353", "28035186231136324", "69570600986480712", "-25859441608190536", "-76908476650714880", "78715890645980832", "8778952062129974", "54972216486930848", "19027806818485260", "19646152853965760", "38483165204524992", "3904961049556732", "-36711916327476504", "-9042412042617798", "-41631426662206648", "-30245665460824968", "-76352156698703760", "49561560153961184", "27247376739978792", "-52110821008682248", "-61451636254787448", "-27900300920009612", "3453798592090606", "53699970245361328", "-67501105368137360", "59635743498802184", "-78445404767990112", "11562339961528778", "367090106010437", "-74064180254936224", "-9672708809375762", "-23666631430387496"], ["80601662397384640", "-80896817147731776", "-10180346667766572", "56401878595352176", "14351084828376770", "-44976860284805296", "-54096024483442304", "34037984907627104", "-43968290090560912", "-20257867872714996", "-52724715322256088", "-38630582392215728", "-47462750226259232", "-76294243335723872", "70854753255844120", "-73928624391555792", "-37238113582134248", "78277409076690672", "24786956608295440", "-75283452868461616", "-50328228622674944", "-56855656206607816", "-31296409666538240", "63762784004211424", "81804916262626640", "82510232925415040", "-70766016840934752", "-39458930492401120", "69320186972618104", "-59242226183414456", "52909612655639648", "73471665382385248", "-29080387204885484", "-25935146957635880", "-7055640220642090", "65070509910583496", "78922480344772336", "66125810146331784", "6152190268039703", "-56638214737176896", "16313500702381134", "72472751140594480", "56801274418830872", "-27695957571268080", "3899015486240387", "471144914627075", "-40158115327358248", "36646991968154904", "71733623743057248", "-50183814018964768", "32411374151706696", "69393292069435120", "-5316868424415588", "71910887956619264", "-11327549815177918", "-75124129652976992"], ["146867454051971424", "39823617786169056", "-359942495822906496", "-101627029478549952", "78383773565292352", "-82350127398967744", "204440101981163040", "-196489900350570688", "-182845771312713632", "39173644036054608", "-297493427991867072", "-275671064853668224", "284242004156112672", "133731707930564880", "404935538768768320", "-47683522105216976", "-64907789230346680", "-316625952720642112", "156262114644050592", "-116843670606613152", "-188177347183227552", "-173340767621994016", "64226545393466952", "-442986696958541888", "76197631657123568", "-72068758308887488", "-170556932687759392", "-153145372867584224", "45762833207845688", "-167955681681632992", "3079948015511036", "223645076155662528", "341166079044342016", "35497199743986128", "-162133082747459424", "226818382740020736", "41053194552659992", "-68413138389587400", "-103034399449825280", "41968889534473416", "-165788292884826656", "43950121849775312", "329082131385803200", "-189006537199020384", "277054071426391616", "-187368929386138912", "-99454626441001888", "179537490010261536", "127324074506759648", "237835094332695008", "152748838067054752", "24020066484808920", "12655690312385560", "-39817679673433304", "38679070770740512", "-105283163487911232"], ["-48410985618829728", "28040491044521332", "-189651027321815488", "11905687861144542", "105748526751995088", "-77747359871864320", "182348027825355520", "-93752019107341760", "-89491441845893856", "243484362959861760", "-192752420902252192", "-75057640671730048", "59490203857421872", "-125184625387191776", "88431432843208320", "-17764763906598092", "-70269227027893064", "9246625006198884", "155467182397842400", "-133388578891754144", "-110298164188861840", "-113112017512321472", "43453134596347808", "-100903190672397616", "40822304785251616", "33551491796970368", "-106485754251480096", "-113128818571567536", "139754906296730048", "-131344839930534368", "4500236827880144", "225460723042488096", "66820397973060608", "-4892033990472555", "-45825552195310592", "272988557815551744", "3428147174417972", "-37860296666622160", "-119539707899093632", "-132000952959060672", "-34747224301099776", "74445240199565888", "89115865528583520", "-13607586733996868", "47601215541362760", "-172140553593635552", "-25470675900578500", "78313872218132016", "166411459445953376", "203221976757049568", "21758604794740676", "25186620652675628", "-15282780863344670", "-141611069440841680", "-23269297555088996", "-11274843476712704"], ["-287466526031494144", "-77185086905956272", "465447008609771712", "213286176323890688", "-31948290765285492", "325838357210159296", "-119628958404064176", "313566267490386944", "238128125667572032", "316140115261077888", "371743470430374144", "421501070261001600", "-502250254154205312", "-291000962257385280", "-451762318611145024", "204901933670043936", "28239713981747628", "314655661582946752", "-290113538503646848", "171002760529518112", "170573413372039808", "301187425851821888", "-154412940144538880", "637314319610595712", "-175728827714920032", "247376501560211168", "177891746163368224", "166779011487960800", "212942004203796384", "311048835515975936", "-135908618569374080", "-408637821674346944", "-430719524621963520", "-206099405884742752", "143996492028236384", "-303300917148590080", "44124234467744824", "89495733380317680", "277545392513275136", "-87446808815002448", "347749799489974976", "-216497525572776800", "-447683602571487424", "284372955560684192", "-393266260623931904", "456336200237274176", "152219653129577632", "-314435422420501696", "-126803576946258544", "-371042609214782720", "-304349124431610112", "189736783504486080", "191273331642150880", "43116781860589984", "-192055344581604000", "34501995891332628"], ["-54804727435112000", "-52451752126216888", "32431580126285552", "-6257681641727686", "-34827545285224916", "86726874113082880", "-43380763381719592", "20358871668577196", "69373480975627896", "38007989525794984", "-48460826277732848", "29065420851111412", "-33356890082359312", "17640121281147004", "2262638881802559", "44618915766477584", "87195336818695072", "-52185881882905960", "-55120293051004408", "25606924667954444", "37155821919441224", "113966464996337888", "-51754049956798552", "-3304136684164405", "-962334976065903", "-45608997344970704", "44486675411462784", "2120485063642263", "28776893392205240", "97536131739616400", "-17458513379096984", "57764150202274320", "18551593646407128", "-100066393613815312", "89850828051567072", "-7283579092472792", "43924756348133088", "6788534577935934", "-12289715930819512", "3521959530189633", "-39120320230722424", "46319302171468736", "-81858336925506592", "9700081311166286", "-54763734340667728", "52103515714406968", "15431196428835392", "23761784657835960", "-67702017724514008", "25985740125179292", "-66898398101329800", "80354258418083184", "97010426223278048", "-54699487984180448", "-35259634256362916", "39722878485918048"], ["-47087214887142184", "-79229824244976048", "-80302089452743536", "63709735870361328", "-53531844168901440", "-53997673094272616", "-58646932244300840", "41927054524421688", "-70278145372867584", "-11615373194217682", "78623890876770016", "77732592821121216", "42852744460105896", "62178730964660648", "52781924605369568", "9963855147361756", "11145256459712982", "-13128705322742462", "17688840627670288", "55514082312583920", "80525487661361696", "-78089334070682528", "-34610386937856676", "-65005883574485776", "-70631116628646848", "35670682787895204", "-56500449776649472", "31979113817214964", "-59445761144161224", "-41315998882055280", "-79272441565990448", "80164924263954160", "72500556707382208", "-30969958752393724", "71991488337516784", "36837629973888400", "52004888653755184", "13319805264472962", "-83435095846652992", "-24012509733438492", "-2386972308158874", "11924415826797486", "32482780516147612", "-36895945668220520", "-10633423924446106", "12073926627635956", "15458896756172180", "53560778498649600", "-36752454936504368", "-24098549038171768", "48520490527153016", "24017848074436188", "1154050230979919", "-45563165098428728", "-54934810847043992", "-42518936097621920"], ["-77593840658664704", "58950856328010560", "-2079829573631286", "-25496862828731536", "56127384305000304", "-19457794725894928", "-54380826652050016", "50038769841194152", "-27445692569017412", "4403010010719299", "-41662316769361496", "-13648577034473420", "-38365930318832400", "68466857075691224", "-43869029730558392", "83214461803436272", "-60676306486129760", "75895309448242192", "-32599773257970808", "37377186119556424", "16813397407531738", "-17532639205455780", "27202360332012176", "54599508643150328", "12194260954856872", "-34198500216007232", "13497248291969300", "-46394333243370056", "49186825752258304", "67190974950790408", "40053375065326688", "16678109765052796", "71229845285415648", "-46259168535470960", "-59567809104919432", "-55162407457828520", "67230597138404848", "50694778561592104", "75040280818939216", "83540529012680048", "-4549697041511536", "-50538714975118640", "-30997261404991148", "-62003768980503080", "77582016587257392", "62335848808288576", "-27668815106153488", "-30715420842170716", "69511026144027712", "35276524722576140", "-27865923941135408", "73568224906921392", "42553722858428952", "-25767397135496140", "39665587246418000", "878378748893737"], ["-66769696772098544", "16627997159957886", "-51439240574836728", "35639345645904540", "151768326759338", "74709892272949216", "32526001334190368", "50487682223320008", "26910305023193360", "-75376950204372400", "-22257197648286820", "44339418411254880", "-5688294768333435", "-51478896290063856", "66301882266998288", "-84049671888351440", "52232101559638976", "-35970069468021392", "32790973782539368", "38456000387668608", "-1042604446411132", "-5079910159111023", "-4298046231269836", "55718645453453064", "16831636428833008", "-66597595810890200", "-52573345601558688", "21905757486820220", "-64970403909683224", "84106564521789552", "-797152519226074", "19708037376403808", "14432467520236968", "74686437845230096", "-41091103106737136", "63299551606178280", "50951018929481504", "7233709096908569", "-8479058742523193", "12709081172943116", "-33771842718124388", "-6645366549491882", "5943156778812408", "-62806688249111176", "70292487740516664", "-27592871338129044", "42820721864700320", "72959005832672112", "50658911466598512", "-61030782759189608", "-34919146448373796", "69393068552017208", "48130586743354800", "82791149616241456", "26049494743347168", "36259807646274568"], ["-37729352712631224", "-33637117594480516", "27563832700252532", "-13375759124755860", "-15629105269908906", "54376378655433656", "-25309808552265168", "75942128896713264", "-59439316391944888", "51954701542854312", "-63252709805965424", "-77407717704772944", "-13179741799831390", "-52684232592582704", "-16818843781948090", "6380751729011536", "11204011738300324", "40893778204917904", "75059264898300176", "80146998167037968", "-66086731851100920", "38711324334144592", "52618578076362608", "-39084281772375104", "36831848323345184", "-6164744496345520", "-4475466907024383", "30244976282119752", "-44366553425788880", "-31163699924945832", "36077953875064848", "67575380206108096", "-1841045916080474", "72673439979553216", "15550173819065094", "-83788290619850160", "34078843891620636", "-17305225133895874", "14114402234554290", "-47400083392858504", "69985166192054752", "1986429095268249", "36398783326148984", "63989400863647464", "-79809255897998816", "59363365173339840", "9160295128822326", "68388640880584720", "-12486800551414490", "23539103567600252", "-71066796779632568", "-27061793953180312", "-10434217751026154", "-36432635039091112", "-13423010706901550", "66846191883087160"], ["-596843659877777", "37980198860168456", "-76698370277881616", "-16406171023845672", "-13913765549659730", "-15995331108570098", "-17694242298603058", "52608668804168704", "12749217450618744", "-25900267064571380", "31901836395263672", "4526227712631226", "59996321797370912", "13853542506694794", "-56550681591033936", "4424847662448883", "-11309109628200532", "-82442224025726320", "73251023888587952", "-34450978040695192", "77972844243049616", "-34154511988162996", "-32042868435382844", "67786514759063720", "-81612139940261840", "8707359433174133", "-35197116434574128", "52511706948280336", "-84126770496368416", "-57218577712774280", "13612888753414154", "26608519256114960", "5675181746482849", "13729900121688842", "26246137917041780", "-332154333591461", "-13533741235733032", "4791036248207092", "31223885715007780", "-3911167383193969", "60778185725212096", "17322674393653870", "-63166126608848568", "-31325262039899828", "-12832157313823700", "-62609061598777768", "52839472889900208", "12020692229270936", "4304878413677215", "40873631834983824", "61663076281547544", "-51296982914209368", "7336936891078949", "70169955492019656", "-79958528280258176", "-47841429710388184"], ["-37046283483505248", "6686009466648102", "41669294238090512", "44501051306724552", "-18304221332073212", "-83703637123107904", "68676456809043888", "22156141698360444", "-5270630121231079", "-58060504496097568", "-38394745439291000", "-53787004202604296", "7127635180950165", "-38641523569822312", "39549969136714936", "-72903998196125024", "58881282806396488", "72593346238136288", "37201799452304840", "73736295104026800", "-4271306097507477", "39498664438724520", "75475066900253296", "45618519186973568", "21482028067111968", "68552792072296", "78407242894172672", "53239896893501280", "-74926637113094336", "51613599061965944", "83789840340614320", "-57921573519706728", "5419962108135223", "-50051990896463392", "-53148832172155384", "-18898047506809236", "56901216506958008", "-43162345886230472", "-25968212634325028", "-34166399389505388", "39159804582595824", "-44981513172388080", "-9875498712062836", "-10684579610824584", "-29107488691806792", "24242460727691652", "68837881088256832", "31031675636768340", "-20630709826946260", "40707692503929136", "-56134685873985288", "48816367983818056", "47810196876525880", "5961954593658447", "-22124510258436204", "-46948764473199848"], ["13446107506752014", "-37560675293207168", "26271007955074312", "-11866264045238494", "62786564230918888", "-17002590000629426", "-33298939466476440", "-78348398208618160", "-18983557820320128", "75099751353263856", "-9089708328247070", "-19656330347061156", "-76669760048389440", "62115877866744992", "75950577855110176", "47366455197334288", "871673226356506", "82405656576156624", "9056359529495240", "43678566813468936", "-41319444775581360", "-45416533946990968", "-39130140095949176", "-24649351835250856", "-68223543465137480", "-13204589486122132", "-74416115880012512", "-63905090093612672", "43523877859115600", "13782389461994172", "72861760854721072", "-63415564596652984", "51722154021263120", "-38534164428710936", "17926268279552460", "71949854493141176", "70894151926040648", "-33466730266809464", "40086783468723296", "-270940363407135", "-13405807316303254", "24053879082202912", "-13497225940227508", "-42433518916368488", "-79844564199447632", "-19251435995101928", "-4259660840034485", "-53393632173538208", "-14161072671413422", "-71958474814891816", "33828042447566988", "73253497481346128", "-79063504934310912", "42210072278976440", "-51546439528465272", "-55812306702136992"], ["-41595600545406344", "15014946460723876", "-28795685619115828", "-4486814141273498", "71968674659729000", "-77598512172698976", "40532261133193968", "33781372010707856", "27384273707866668", "65279558300971984", "-42518533766269680", "14181561768054962", "11062316596508026", "12335836887359620", "-78433029353618624", "42819991707801816", "55783927440643312", "6275512278079987", "33694848418235780", "47088384628295896", "62243759632110592", "10691598057746888", "-17530478537082672", "80852985382080080", "-81047743558883664", "-62420755624771120", "-12527100741863250", "-12388691306114196", "56452438235282896", "32679125666618348", "-64761929214000704", "-51472004503011704", "-61249855905771256", "39735227823257448", "-38928158581256864", "51520362496376040", "62241017818450928", "-32290995121002196", "-6497666239738464", "-77650822699069984", "68912059068679808", "50795555114746096", "-37453778088092800", "-46514187008142472", "25807693600654604", "-20773269236087800", "46576246619224552", "-56363955140113832", "9232409298419952", "74316799640655520", "-51912847906351088", "44162049889564512", "-14386549592018128", "31001150608062744", "-33416010439395904", "62277615070343016"], ["22075764834880828", "-35463295876979828", "-40635291486978528", "-21849706768989564", "42550474405288696", "43325334787368776", "79979583621025088", "-65902322530746456", "48960462212562560", "36911584436893464", "-67435555160045624", "73339417576789856", "-20338170230388640", "80007165670394896", "52959486842155456", "15018455684185028", "55585339665412904", "77760830521583552", "35301230847835540", "-81736348569393152", "-200554728507995", "2720199525356292", "-23980773985385896", "-73954619467258448", "-46292901039123536", "-10112680494785308", "83769440650939936", "-9750828146934510", "34951910376548768", "59179559350013736", "47415271401405336", "-66173560917377472", "-47169968485832216", "-26892978698015212", "-24149347096681596", "54615318775177000", "-66196411848068240", "58105140924453736", "-73531307280063632", "-67552432417869568", "82314819097518928", "21031290292739868", "-79642519354820256", "-31406629830598832", "79458773136138912", "25538288056850432", "57479277253150936", "25857530534267424", "79225033521652224", "29399223625659944", "-20084522664546968", "-28392262756824492", "-53490877151489256", "-6148487329483032", "14027975499629974", "42435348033905032"], ["-61912447214126584", "-9169161319732666", "-3446482121944427", "-67544728517532352", "73526903986930848", "-9021878242492676", "-73388166725635536", "29722951352596284", "6323732435703278", "-56050360202789304", "-43995935469865800", "-22387124598026276", "39346329867839816", "-32479759305715560", "-77017426490783696", "-81355959177017216", "-61681549996137616", "57975023984909056", "52665889263153080", "56559786200523376", "49024656414985656", "-52466530352830888", "32914660871028900", "-61452709138393400", "-41090480983257296", "78093945980072016", "45976236462593080", "-36326989531517032", "-13000383973121644", "-28620060533285140", "-55120192468166352", "-83335615694522864", "-52325502038002016", "-19510105252265932", "-12671597301959992", "-80212220549583440", "22808365523815156", "22796191275119780", "-4129171371459961", "66271707415580752", "68349599838256832", "-18103569746017456", "-491864979267120", "-1543290913105011", "22098474204540252", "-66036760807037352", "52220135927200320", "-27112834155559540", "-26982747018337248", "-14583393931388854", "51752194762229920", "-24761285632848740", "71901291608810424", "-20588956773281096", "64514726400375368", "24900279939174652"], ["31909048557281496", "12326449155807496", "21122790873050688", "-81364236772060400", "-42613681405782696", "-41243821382522584", "44785067439079288", "-83092242479324336", "-69710798561573032", "24459213018417360", "-1920320093631744", "77506557106971744", "-1502767205238342", "71546286344528200", "-47385957092046736", "-80627270042896272", "68088173866271976", "81968724727630608", "19824281334877016", "66632732748985288", "-72090782225131984", "-41764214634895328", "-19780054688453676", "-43888717889785768", "63456505537033080", "70674031972885128", "31253769993782044", "18462017178535460", "59409067034721376", "-69136805832386016", "66949605941772464", "-81946574151515968", "4501760005950927", "47884657979011536", "-52056215703487400", "5926147103309631", "-60440711677074432", "-45220796018838880", "-37861675024032592", "42023345828056336", "-81436976790428160", "-65852127969264984", "12259691953659058", "916764140129089", "-14680758118629456", "-13492569327354432", "37668779492378232", "-21855808794498444", "-1024626195430755", "-6134845316410065", "63763916492462160", "-64539596438407896", "-81572145223617552", "-53499847650527952", "22028937935829164", "-81300102174282080"], ["15209034085273742", "3301747143268585", "-1390531659126281", "-27891371399164200", "-52987471222877504", "37654429674148560", "13224653899669648", "-24238895624876024", "36748528480529784", "72358876466751104", "66291779279708864", "80468565225601200", "41117265820503232", "-1478448510169983", "7214806973934174", "6743252277374268", "-15210971236228942", "-2575516700744629", "-33816512674093248", "-77980823814868928", "-59164326637983320", "-25548223406076432", "23212067782878876", "48221841454505920", "-78771851956844336", "-55657029151916504", "-72385273873806000", "-18267832696437836", "-48325233161449432", "-30752759426832200", "-51095925271511080", "-12135408818721772", "60298755764961240", "-77768579125404352", "-10466642677783966", "3604620695114135", "-80005556344985968", "37874855101108552", "-80192856490612032", "38161814212799072", "-13955838978290558", "44212728738784792", "72353437542915344", "49208849668502808", "-4311487078666687", "-14849215745925904", "33504769206047060", "-26112645864486696", "-4344776272773742", "-82815706729888912", "20934931933879852", "-60887075960636136", "30310787260532380", "-38518767803907392", "-78309409320354464", "67640617489814760"], ["-19673697650432588", "63306853175163272", "23769199848175048", "35385675728321076", "-73923066258430480", "-21227046847343444", "14366962015628814", "-84281623363494880", "58483392000198368", "-50523322075605392", "-73271073400974272", "-2031020820140838", "27427054941654204", "-38414955139160160", "15979371964931488", "-70622369647026064", "-13299316167831420", "1372665166854858", "-23077446967363356", "79495862126350400", "-78452639281749728", "-35003956407308580", "-18021255731582640", "-49066349864006040", "45277401804924008", "36976039409637448", "-50642870366573336", "-83712786436080928", "32339170575141908", "-42212050408124920", "77158123254776000", "-11519297957420350", "62197014689445496", "51566183567047120", "41889563202857968", "-51895014941692352", "-42340144515037536", "-59158824384212496", "-18593959510326384", "-44580549001693728", "-36555591970682144", "63166514039039608", "5773089826107025", "-58099232614040376", "-28949532657861708", "-81844292581081392", "-42505193501710888", "50571918487548832", "26443205773830412", "57584777474403384", "13129003345966340", "30430682003498076", "-79765737056732176", "43665513396263120", "23522175848484040", "39252631366252896"], ["-1515768468379974", "-1045845448970794", "-37371445447206496", "-28933148831129076", "82330003380775456", "-50173316150903704", "-26435893028974532", "58938324451446536", "58856591582298280", "72351083159446720", "39240926504135128", "65876290202140808", "54825961589813232", "56992590427398680", "-41748560965061184", "24479828774929048", "13743095099925994", "12479789555072784", "41359528899192808", "-81281438469886784", "-81626594066619872", "-22293467074632644", "-18118940293788908", "24112574756145476", "-83675585687160496", "40731057524681088", "-78268080949783328", "-72837240993976592", "77241897583007808", "23991875350475312", "-10522678494453430", "67235782742500304", "-13969302177429200", "45447617769241336", "75363278388977056", "-76205343008041376", "43872401118278504", "-80179192125797264", "72159588336944576", "-73749653995037072", "-13712286949157714", "-705435872077941", "74255034327507024", "83456456661224368", "-39109587669372560", "67499056458473208", "36064617335796360", "-53968474268913272", "-4229858517646789", "40315628051757816", "65139010548591616", "8451350033283234", "-24181425571441652", "59565618634223936", "-78327648341655728", "-73337182402610784"], ["60983076691627504", "-33877346664667128", "-12987814843654632", "77249020338058464", "58800399303436280", "-31205412000417708", "67136466503143312", "33022001385688780", "8536100387573242", "29591068625450136", "66931039094924928", "-74474394321441648", "-75937651097774512", "20039141178131104", "47006458044052128", "57080835103988648", "-75992137193679808", "-10255001485347748", "-80868422985076912", "-76231233775615696", "34815691411495208", "65913423895835880", "-10945789515972138", "-21466754376888276", "15385001897811890", "55089846253395080", "17436236143112182", "6549693644046783", "30426532030105592", "-45695230364799496", "-45677658170461656", "-21941870450973512", "83070307970046992", "2559415996074676", "-3618828952312469", "-58469209820032120", "-78715577721595760", "46160459518432616", "-43666239827871320", "41953667998313904", "-64957827329635624", "65717309713363648", "65415978431701664", "-79976260662078864", "59830993413925168", "74048951268196112", "-4260584712028503", "934436917304992", "2295374870300293", "25630012154579164", "-26940491050481796", "70862188935279848", "-17984159290790558", "-55129460990428928", "-44041212648153304", "-69736108183860776"], ["-60527738183736800", "-36800414323806760", "-71862116456031800", "-74249036610126496", "50297215580940248", "56840121746063232", "-45252975076437000", "-36279294639825824", "78526914119720464", "420935451984405", "-56193303316831592", "124268233776092", "42756304144859312", "-18425829708576204", "-19129246473312376", "-48266395926475528", "-10922551155090332", "72019830346107480", "69982767105102536", "-42156960815191272", "80766424536705024", "-48580374568700792", "-43542940169572832", "-20941399037837984", "-3469452261924743", "55274173617362976", "12870758771896362", "-83790563046932224", "63945546746253968", "14256075024604798", "62604099512100216", "-75734332203865056", "-66601470112800600", "21566115319728852", "7528260350227356", "-76129011809825904", "56256920099258424", "50021767616271976", "59410020709037784", "36375224590301512", "84038957953453056", "-44583592563867568", "75442880392074592", "-21433241665363312", "81525743007659920", "79247266054153440", "-2328179776668548", "48304557800292968", "-20507268607616424", "-250950455665588", "-51761541515588760", "-73358103632926944", "49617499113082888", "-37215929478406904", "66996634006500248", "-26990484446287156"], ["17763568088412284", "-52124410867691040", "-12910263612866402", "-52966628223657608", "30173497274518012", "3038894385099411", "100800208747386928", "-99777713418006896", "-85952207446098320", "66574916243553160", "-50318539142608640", "32743010669946672", "-12670925818383694", "-68903721868991848", "-12620279565453530", "42889572679996488", "25581168010830880", "33918201923370360", "15284122899174690", "-42840994894504544", "-95901623368263248", "-6050699390470982", "72522893548011776", "-19241925328969956", "-21620942279696464", "56611068546772000", "51845528185367584", "-84656283259391792", "54725270718336104", "-74297323822975152", "-62137387692928312", "55242806673049928", "92244826257228848", "86014442145824432", "-73990188539028160", "67442968487739560", "695700931828469", "-49288056790828704", "-14143574982881546", "59066500514745712", "1107408781535923", "-49755487591028216", "85190489888191216", "20644571632146836", "-44182490557432176", "-20880253985524176", "-29713431373238564", "11983797885477542", "69742359220981600", "-44597659260034560", "-19223811104893684", "48680067062377928", "-9797119535505772", "17095424234867096", "-38075271993875504", "-7857752032577991"], ["-14012940227985382", "-15574435703456402", "-174995988607406624", "-74232503771781920", "35339027643203736", "454673077911138", "-43680842965841296", "-127716362476348880", "-95362409949302672", "3498672507703304", "-157207325100898752", "-80761827528476720", "85648253560066224", "90757891535758976", "175047770142555232", "11939946562051774", "-59874139726161960", "-67908845841884616", "123009257018566128", "-15342066064476966", "-101431682705879216", "-135459095239639280", "90856015682220464", "-188145086169242848", "39079830050468448", "3790583228692412", "-120595052838325504", "-109551392495632176", "-22088151425123216", "1053808606229722", "-4851037170737982", "-987387960776686", "110442221164703376", "27448801323771476", "-69849826395511624", "83073399960994720", "-60190808027982712", "-70912107825279232", "-35605348646640776", "77861487865448000", "-91360613703727728", "-32109178602695464", "166256129741668704", "-29141804203391076", "63341893255710600", "-59068005532026288", "-48154778778553008", "116719298064708704", "-27479374781250952", "76553389430046080", "61127897351980208", "223735463805496", "63707210123538968", "20385915413498880", "-14481917023658752", "-80093897879123680"], ["-171692162752151488", "-228493645787239072", "-211661264300346368", "-393753737211227392", "461112260818481472", "-382269352674484224", "439523994922637952", "-439773499965667712", "173038661479949952", "236356467008590688", "-467799007892608640", "-597602844238281216", "514000058174133312", "-265236496925354016", "108066491782665248", "-279272735118865952", "-450983464717864960", "-166396319866180416", "478451520204544064", "-526089847087860096", "147228598594665536", "-358634650707244864", "403875648975372288", "-541305661201477056", "113432221114635472", "265772759914398208", "7567802909761667", "-395293623208999616", "206487566232681280", "82073971629142768", "-140398085117340080", "591280341148376448", "519119739532470720", "212026551365852352", "-594682335853576704", "571648061275482176", "-256231606006622304", "-397957742214202880", "-547534883022308352", "-167162418365478528", "-554323077201843264", "359734565019607552", "608284294605255168", "-186677932739257824", "352876186370849600", "-539216101169586176", "-480120748281478912", "426031112670898432", "537374734878540032", "447451591491699200", "-67821338772773744", "-106968268752098080", "198215454816818240", "-447008132934570304", "-228499457240104672", "-368376493453979520"], ["-356089115142822272", "-378754884004592896", "72105571627616880", "-498631089925766016", "335358321666717504", "-262452542781829824", "370395749807357760", "-267989158630371104", "273729175329208384", "311878561973571776", "-211246237158775328", "-197821199893951424", "220587164163589472", "-355451107025146496", "-188658162951469408", "-137561187148094176", "-446350336074829120", "-97385734319686896", "163312837481498720", "-414893746376037568", "436465770006179840", "-67443452775478360", "282601147890090944", "-3443285357207060", "33006582409143448", "355088353157043456", "99115729331970208", "-363411486148834240", "377289950847625728", "296322107315063488", "-339094966650009152", "122324407100677488", "42233154177665712", "233352601528167712", "-473645865917205824", "316117674112319936", "-373401075601577728", "-365669935941696192", "-402174890041351296", "-330067664384841920", "-286174535751342784", "301818549633026112", "235356673598289504", "143962740898132320", "19282950088381768", "-306120693683624256", "-325750410556793216", "216664493083953856", "415648251771926848", "189062848687171936", "-417963832616806016", "-4679348785430193", "371567249298095680", "-395350068807601920", "-386330455541610688", "-313630253076553344"], ["337323307991027840", "281124353408813472", "-377060562372207616", "-657719254493713408", "463928192853927616", "-619378626346588160", "604105532169342080", "-650942742824554496", "-319424957036972032", "-293232947587966912", "-617038190364837632", "-515214443206787136", "432682991027832000", "265475451946258560", "363246321678161600", "-348393768072128320", "-513414144515991232", "-417301923036575296", "546798050403594944", "-596920251846313472", "-370205879211425792", "-463634699583053568", "574323415756225600", "-545692205429077120", "374292045831680320", "-232833489775657664", "-371671289205551168", "-529348433017730688", "-100592702627182000", "-267084866762161248", "189082339406013504", "653434514999389696", "540590763092041024", "327404737472534208", "-564619004726409920", "574143886566162112", "-84699526429176336", "-363757908344268800", "-509526073932647680", "128618597984313968", "-525859534740448000", "578096807003021184", "594016790390014592", "-468747913837432832", "438718974590301504", "-540699064731597888", "-531344473361969024", "644832432270050048", "606875658035278336", "565775692462921152", "228901922702789312", "-368089407682418816", "-140135243535041808", "-605322897434234624", "150059133768081664", "-52835561335086824"], ["145279943943023680", "161936163902282720", "-81696271896362304", "-315813243389129664", "24635756388306616", "-186261698603630080", "146338596940040576", "-183396801352500928", "-55143088102340696", "-227309376001358048", "-220677316188812256", "-168166235089302048", "100070849061012272", "132189095020294192", "83090364933013920", "-234839364886283872", "-250134170055389408", "-199696764349937440", "166658625006675712", "-289394170045852672", "-58483086526393888", "-82636967301368720", "230833634734153760", "-101299472153186800", "223549351096153248", "-79867266118526464", "-143907323479652400", "-131943851709365840", "-754681648686528", "-118382133543491360", "120558097958564752", "175604835152626048", "255192697048187264", "215387895703315744", "-358642965555191040", "173628866672515872", "-188709422945976256", "26971478015184404", "-281391620635986336", "243785232305526720", "-287123560905456544", "243090197443962112", "144583359360694880", "-151576682925224320", "201223418116569504", "-168918862938880928", "-211216375231742848", "231470137834548960", "293125361204147328", "190068557858467104", "67072577774524688", "-138521835207939152", "-12295217253267766", "-194115787744522080", "235730797052383424", "73121577501296992"], ["-158480823040008544", "-47560751438140872", "210834637284278880", "46678710728883744", "-51852513104677200", "-4230639897286892", "-46188957989215848", "146767139434814464", "90542607009410864", "305984616279602048", "68881258368492128", "85272960364818576", "-95173150300979616", "-308093249797821056", "-119461901485919952", "219910174608230592", "-11346522718667984", "271902233362197888", "-41508711874485016", "157911285758018496", "1161227002739906", "93139521777629856", "-74119195342063904", "38151536136865616", "-12597221881151200", "262534916400909408", "205937951803207392", "185809671878814688", "205836772918701184", "88605947792530064", "-354502797126770048", "-14744671992957592", "-61958853155374528", "-266314536333084096", "43841235339641568", "-90337239205837248", "-231867700815200800", "161615252494812000", "-30990138649940492", "-237739130854606624", "21762667223811148", "-43228015303611752", "-10398141108453274", "108895704150199888", "-110099241137504576", "121253125369548800", "11906746774911880", "-125122383236885072", "57660579681396488", "17324380576610566", "-87120376527309424", "137673303484916688", "192666664719581600", "-38200661540031432", "-122559070587158208", "142823144793510432"], ["709707021713256832", "-491439640522003200", "-368809163570404032", "-783181250095367424", "424599707126617408", "-353218257427215552", "263702780008316032", "-350047528743743872", "-640670776367187456", "-1026083230972290048", "-49564447253942488", "-406312376260757440", "111050009727478032", "876136958599090560", "194734737277030944", "-987742364406585728", "377593994140625024", "-693779766559600768", "-157345712184906016", "-738481044769287168", "270201295614242560", "-635615110397338880", "-125494346022605888", "-389428466558456448", "499220520257949824", "-544779419898986816", "145048663020133984", "58512452989816664", "93733556568622592", "11169732548296452", "729742944240570112", "-137890115380287168", "372166514396667456", "837879002094268800", "-607195734977722112", "-110800966620445248", "-673442244529724160", "-16024369746446610", "-487810343503952000", "941366255283355776", "-396544843912124608", "580134451389312768", "10074578225612640", "-513113856315612800", "797066569328308096", "58623861521482464", "-408812642097473152", "780089497566223104", "259481161832809440", "-41098695248365400", "114041723310947424", "82602456212043760", "158853411674499520", "-166680529713630688", "862787663936615040", "-1026480197906494080"], ["1102869868278503424", "-758890509605407744", "-725992918014526336", "-2014245033264160256", "1705123066902160640", "-712621808052062976", "1322494626045227008", "-529978632926940928", "-996632814407348608", "-1261226654052734464", "-50271853804588320", "-797459244728088320", "157477900385856640", "1142350435256957952", "258899182081222528", "-926449716091155968", "351386010646820096", "-1223803997039794944", "-404507040977478016", "-2090726613998413056", "567913889884948736", "-1228164792060851968", "181630894541740416", "-787309587001800576", "491857409477233856", "-390548288822174080", "337964445352554304", "-346508443355560320", "1964904189109802240", "110227584838867184", "1056635379791259776", "-290553689002990720", "640437424182891904", "800700008869171200", "-1628391861915588352", "-173755586147308352", "-2081417798995971584", "-744768500328064000", "-1043551921844482432", "1381256699562072832", "-859909355640411392", "882302582263946496", "-165840625762939456", "-812735021114349312", "1312340736389160192", "-15110515058040618", "-461071968078613312", "1388776898384094208", "928729295730590848", "81253282725811008", "-244852691888809216", "2363525867462158336", "942702174186706560", "-1620506167411804160", "1019636631011962880", "-3253307819366455296"], ["484491944313049344", "-1034934401512146048", "-350857168436050432", "-2036861896514892544", "2389636278152465920", "-588263094425201408", "1301015138626098688", "-501295983791351296", "-594304382801055872", "-1257866501808166400", "-155971661210060128", "-592012345790862976", "6390570662915707", "890093922615051264", "99227920174598688", "-1185503005981445376", "238108620047569280", "-878944516181945856", "-309570044279098496", "-1661209344863891712", "557248532772064192", "-695637762546539264", "255235612392425536", "-416847974061965952", "217909291386604320", "-282970786094665536", "521915376186370880", "-222020372748374944", "1065677165985107456", "241712421178817760", "658969700336456320", "-193850219249725344", "482484042644500736", "664979040622711168", "-1776247739791870208", "-187126219272613536", "-1686059594154358016", "-719220757484436096", "-891704857349395712", "1695470452308654848", "-644917964935302784", "791286945343017600", "8036736398935318", "-493032634258270272", "758007347583770752", "34275282174348832", "-656207978725433344", "1167929410934448128", "932338654994964608", "151660323143005376", "-109132446348667152", "1117423772811889664", "1105620861053466752", "-1276787400245666560", "708890259265899648", "-2727945327758789120"], ["-405006617307662976", "-337851554155349760", "174595296382904064", "83626791834831232", "172621816396713248", "230190828442573536", "392710506916046144", "272921413183212288", "174156546592712416", "635737478733062784", "125078350305557248", "-39506398141384128", "-261799663305282592", "-470332562923431424", "-306758224964141824", "261329293251037600", "-578971922397613568", "334217041730880768", "-63600420951843264", "-445954084396362304", "313340783119201664", "398289382457733184", "80286547541618352", "250920176506042496", "-237772956490516672", "579598128795623808", "432609975337982208", "145169302821159360", "597842991352081280", "309905737638473536", "-628626346588134784", "-182388827204704288", "-347969084978103616", "-197412207722663872", "-425570428371429440", "96264846622943872", "-1017894864082336384", "233321294188499456", "-205858230590820320", "-941941559314727808", "111484125256538384", "5768341943621635", "7691343780606985", "339325547218322752", "-343824297189712512", "198141172528266912", "185991063714027392", "-297333151102066048", "378578037023544320", "-385984033346176128", "-394910991191864000", "511923551559448256", "492424666881561280", "-1174139022827148544", "-423884302377700800", "-725406467914581248"], ["68083658814430240", "-177473545074462880", "-126270696520805360", "-391370445489883392", "423863083124160768", "-307415366172790528", "1079483389854431104", "-62615573406219480", "-336229413747787456", "-53047668188810352", "117787927389144896", "-513520121574401856", "23075984790921212", "222646042704582208", "-23794401437044144", "-530582785606384256", "-789479076862335232", "-318107038736343360", "-45593351125717160", "-1304296493530273536", "451636672019958528", "-55106729269027712", "722563505172729472", "-65822951495647432", "210408464074134816", "485983401536941504", "315522223711013824", "-255910903215408320", "761084377765655552", "281658381223678592", "-351454883813858048", "-150747522711753856", "-136738002300262448", "443444669246673600", "-1122854828834533632", "91264612972736352", "-1175479173660278272", "332789599895477312", "-649540066719055232", "156642794609069824", "-226330533623695360", "542763531208038336", "228216171264648448", "31554348766803740", "30407089740037920", "59999085962772368", "-330050438642501824", "312213957309722880", "956363797187805184", "-408560782670974720", "-370518356561660736", "1118935465812683136", "558198928833007808", "-2157316207885742080", "7786054164171219", "-859794914722442624"], ["-262440085411071776", "-1329830646514892544", "902387619018554624", "-2083625793457031168", "2980993986129760768", "-226332187652587904", "1502783179283142144", "-161280825734138496", "318503826856613184", "-409379780292510976", "829664945602417024", "377327054738998400", "-839773118495941120", "184865519404411328", "-724144160747528064", "-307625979185104384", "410311847925186176", "-10902928188443184", "-1115477561950683648", "-1047789454460144000", "1284744024276733440", "-233454287052154528", "328678280115127552", "210271134972572320", "-858558356761932416", "540603399276733376", "955771088600158720", "-612256944179534976", "1610676288604736256", "993473410606384256", "-3900965908542275", "-677075386047363328", "-406332373619079616", "-490714371204376192", "-2050683021545410048", "-875550150871276800", "-869994699954986624", "-1588556408882141184", "71582421660423280", "851384639739990272", "-275970906019210816", "423278391361236544", "-794081807136535680", "-125951543450355536", "-166915029287338272", "783256530761718784", "-934228181838989312", "891119658946990976", "1350898146629333504", "-352388948202133184", "-1084825277328491264", "1745528340339660544", "1674134612083435008", "-994016528129577600", "-100565575063228608", "-1196245431900024320"], ["840141952037811328", "-950424969196319616", "99007405340671536", "-2235980510711670016", "2979382991790771712", "-905425250530242944", "1532610774040222208", "-860190272331237760", "-634850084781646720", "-1033256173133850112", "246801361441612256", "-432229936122894272", "3416543593630194", "1057105541229248000", "119621165096759792", "-1115214586257934592", "470192200737074", "-937074422836303744", "-620810151100158720", "-1435219049453735424", "963791608810424832", "-1111641168594360320", "807585060596466048", "-572767138481140160", "-30350636690855028", "-381628096103668224", "389704287052154560", "-977499425411224320", "827956736087799040", "384149432182312000", "906541228294372608", "-126807332038879392", "207359209656715392", "605568110942840576", "-2061753749847412224", "-520348310470581056", "-827701449394226048", "-1851000666618347264", "-698150873184204160", "1248274683952331520", "-883213460445404032", "1112711191177368192", "-245601892471313472", "-951071143150329600", "918231248855590784", "281178474426269536", "-1389485239982605056", "1362044095993041920", "1460491418838500864", "155839830636978144", "-385601967573165888", "1152651548385620096", "1056957244873046912", "-1091577291488647424", "528294384479522688", "-1086080074310302720"], ["-728950321674346880", "1895415306091308544", "-247132256627082816", "277949273586273184", "1551409602165222144", "-618061602115631104", "1021958231925964416", "-844650864601135232", "741223990917205760", "3016612052917480448", "-1226243972778320384", "-130928054451942448", "876031994819641088", "-2035350561141967872", "712910532951355008", "2586022853851318272", "-1842383146286010624", "1367522478103637760", "1471928119659423744", "1384650230407714816", "-1604030728340148992", "185057520866394048", "1451400876045227008", "-600638270378112768", "121774554252624512", "517957568168640128", "-1787006020545959424", "-1376347661018371584", "-837525963783264128", "-1159132719039917056", "-1276689767837524480", "1885251283645629952", "722289264202117888", "-2056226253509521408", "-460850685834884672", "1738587260246276864", "2035390138626098688", "-2148673295974731520", "81202551722526544", "-2640468358993530368", "-740567207336425728", "-324479252099990848", "1296171069145202688", "-269993007183074944", "-1011192440986633344", "-1300160408020019456", "-985730826854705792", "-853502988815307648", "1285232424736023040", "1752529025077819904", "617937684059143040", "-833530187606811520", "-1033894062042236288", "-469293117523193344", "-1432714581489562880", "2688465118408203264"], ["-222572103142738336", "-547218739986419648", "-790799796581268352", "-1155629754066467328", "860503315925598208", "-959929347038269056", "1284769058227538944", "-910418510437011712", "-182644590735435488", "345763862133026112", "-1106727600097656192", "-1312323212623596288", "1109522104263305728", "-468881785869598400", "560115814208984384", "-99526718258857728", "-956052541732788096", "-460257738828659072", "927469015121459968", "-1231741189956665088", "55698141455650328", "-589059531688690176", "1076853632926940928", "-1078032135963440000", "437725663185119616", "750947177410125696", "-199090719223022464", "-842273533344268800", "736981153488159232", "-83004556596279152", "-526213526725769024", "1189281344413757440", "889456391334533632", "9784992784261704", "-1354792714118957568", "1384472966194152960", "-531486749649047872", "-663225293159484800", "-1097138404846191360", "-237877994775772096", "-1046383380889892608", "775927007198333696", "1273110747337341184", "-492155551910400384", "460793673992156992", "-1121980190277099648", "-995810747146606464", "920069575309753472", "1163577437400817920", "970166981220245376", "-291027128696441664", "415892064571380608", "838755846023559552", "-910556197166442880", "-478830039501190208", "-733596146106720000"], ["-1215914845466613760", "-1554951190948486400", "-439112782478332544", "-2011339902877807616", "1807144165039062528", "-1675822734832763648", "2052096843719482368", "-1604928374290466304", "794743895530700672", "1180972456932067840", "-1729542374610900992", "-2074326515197753856", "1717163562774658304", "-1590628743171691776", "-53327865898609160", "-950363636016845696", "-1904442548751831040", "-491041004657745344", "1700331091880798464", "-2092369794845581056", "1534025907516479488", "-1000714302062988288", "1849034190177917440", "-1457995414733886720", "439311712980270400", "1594367861747741696", "213400661945343008", "-1550671696662902784", "1667927265167236352", "945192813873291008", "-1555194973945617664", "1950936675071716352", "1273794054985046272", "449963688850402816", "-2197666645050048768", "2042027473449707008", "-1545666933059692288", "-1630735874176025344", "-1833186030387878400", "-1056692242622375552", "-1916246175765991168", "1418597340583801344", "2114011049270629888", "-519770085811614976", "498977452516555776", "-1907208681106567424", "-1919557094573974528", "1582122564315795968", "2073586225509643520", "1625541687011718656", "-1432966709136962816", "1058868408203124992", "1932484030723571712", "-2027169227600097536", "-1515692353248596224", "-1560673475265502976"], ["-424573689699172992", "-585617959499359104", "-258424282073974624", "-1005620360374450688", "911115050315856896", "-875044047832488960", "1113210678100585984", "-777220547199249280", "112299740314483648", "571209013462066624", "-849281311035156224", "-970048785209655808", "821588337421417216", "-551724314689636224", "165286868810653696", "-322999954223632832", "-859169661998748800", "-334615349769592256", "733718991279602048", "-1143666863441467264", "576329886913299584", "-427669793367385856", "965337336063384960", "-730221748352050816", "308722078800201408", "630617082118988032", "4053832963109016", "-722495138645172096", "733845710754394496", "354619830846786496", "-540029048919677760", "998022258281707776", "577699661254882816", "322718292474746688", "-1158830881118774528", "1050682425498962432", "-638404428958892800", "-681314349174499456", "-929962217807769728", "-399031519889831552", "-899382054805755648", "715301215648651136", "1025695919990539520", "-271088212728500352", "333795368671417216", "-888036668300628608", "-925953865051269504", "689062535762786816", "1006378769874572800", "739809274673461888", "-565718531608581568", "337530046701431296", "868242800235748352", "-854745566844940160", "-732116997241973888", "-768803775310516352"], ["-295096457004547136", "-378598302602767936", "-158136799931526176", "-579872429370880128", "404954761266708352", "-525818705558776832", "598798871040344192", "-463443636894226048", "116274490952491760", "314073383808136000", "-626259386539459200", "-688853561878204288", "425833016633987456", "-374855160713195776", "-107612214982509616", "-193239107728004448", "-489911615848541248", "-144542351365089408", "458545565605163584", "-678796768188476544", "290185809135436992", "-287365585565567008", "501283049583435072", "-662070512771606400", "308744490146636992", "414645254611969024", "113715969026088720", "-336439698934555072", "410150945186614976", "212785989046096800", "-252705305814743040", "678718388080596864", "599906861782073984", "138288885354995728", "-714438736438751232", "716831862926483200", "-224202379584312448", "-326892137527465792", "-524351835250854464", "-193444103002548224", "-539339721202850368", "288990914821624768", "620706498622894336", "17092436552047730", "339207172393798848", "-583760201930999808", "-449111282825469952", "464278906583785984", "536898910999298112", "578541219234466560", "-213248223066329952", "70163279771804808", "494212657213211072", "-594358086585998592", "-291018843650817856", "-349783658981323264"], ["-252079963684082016", "-350492537021636992", "-116425752639770512", "-596452474594116224", "418108016252517696", "-516753435134887680", "638923048973083520", "-436283618211746240", "170413181185722336", "322805136442184448", "-500977694988250752", "-632123827934265088", "448764324188232448", "-277935951948165888", "110622070729732512", "-45668385922908784", "-354001432657241792", "-234443753957748416", "461850970983505280", "-549285411834716800", "148918688297271744", "-268297255039215072", "423256963491439808", "-585579633712768512", "210642024874687200", "343592971563339264", "94322502613067632", "-304128646850585920", "451677650213241600", "208475738763809216", "-299549162387847872", "545572936534881600", "492525309324264512", "142905041575431824", "-670091807842254592", "588909387588500992", "-317478805780410752", "-365757197141647360", "-572428703308105472", "-163745447993278496", "-587599694728851328", "367781132459640512", "565813899040222144", "3552022622898221", "252743303775787360", "-504294455051422144", "-540392637252807616", "495516598224639872", "480744063854217536", "546349048614501952", "-260480403900146496", "140522941946983344", "385509490966796864", "-383004903793334976", "-249597787857055680", "-240426182746887200"], ["-67137837409973144", "40143728256225584", "-81967167556285856", "11752977967262268", "-464558601379394", "61933428049087528", "-55578038096427920", "49561560153961184", "59315830469131472", "46265050768852232", "31583040952682496", "4706948995590210", "43669849634170536", "-58101672679185864", "-1534387469291687", "2159498631954193", "-29491629451513292", "4633322358131409", "-82533121109008784", "60641467571258544", "-35868395119905472", "-39089135825634000", "34457147121429444", "-84151171147823328", "23212812840938568", "-47509014606475832", "77898308634758000", "-69490134716033936", "61551079154014584", "11178821325302124", "73495522141456608", "53176254034042360", "-5693212151527405", "48891201615333560", "-22466074675321580", "50163522362709048", "31870909035205840", "-82322858273983008", "-54434727877378464", "-75568698346614832", "-78240014612674720", "-55126417428255080", "-69275118410587312", "-15284374356269836", "75932294130325312", "-81566847860813136", "38344129920005800", "60558184981346128", "39845041930675504", "41383504867553712", "-52493695169687272", "45329362154006960", "-55765740573406216", "6036207079887390", "1306585967540741", "1093864440917968"], ["-20829953253269196", "-78288495540618896", "-23204270750284196", "-46840012073516848", "-4436857998371124", "-37045117467641832", "-43158821761608120", "-25998193770647048", "16663603484630584", "40700495243072512", "27963206171989440", "12158297002315522", "12300699949264526", "-3449447453022003", "66037520766258240", "-8356846868991852", "50289735198020936", "-45443512499332424", "-33412363380193712", "33475860953330992", "-33601272851228712", "10879389941692352", "-30721105635166168", "76690435409545904", "-22568032145500184", "42000412940979000", "-42999535799026488", "71763202548027040", "-40164746344089512", "-25398127734661104", "-49597948789596560", "12104660272598266", "44622257351875304", "74358448386192320", "-70305652916431424", "33575542271137236", "-13488881289958954", "66997975111007688", "-35759139806032180", "66204145550727848", "48875525593757632", "-35465676337480544", "26712313294410704", "-74462465941905968", "-18154084682464600", "-57652730494737624", "-30694991350173952", "-18259935081005096", "-19542001187801360", "-7716216146945953", "78057333827018736", "74987277388572688", "-22061783820390700", "17491124570369720", "34881547093391420", "21150678396224976"], ["-63954055309295656", "16321495175361634", "-47529667615890504", "59062138199806216", "55155068635940552", "-28705332428216936", "-57551778852939608", "-83572685718536384", "-32985948026180268", "-34265052527189256", "-36809079349040984", "-12455284595489502", "3119871020317077", "76182529330253600", "-65120220184326168", "-39841681718826296", "83910122513771056", "5219243466854095", "13199493288993836", "-5940273404121399", "-65578266978263856", "-73237985372543328", "-44941034168004992", "38629814982414248", "-29739093035459520", "-9878523647785186", "38254782557487488", "8157081902027130", "-60078512877225872", "-65028414130210880", "-72879493236541744", "-1219764351844787", "-30876822769641876", "82556068897247312", "55608332157135008", "-59400483965873720", "14377377927303314", "-83343677222728736", "-47963600605726240", "39700649678707120", "-20934104919433592", "7513023912906647", "-22412534803152084", "-54578498005867008", "-45651786029338840", "51757678389549256", "49130737781524656", "44896185398101808", "-29483750462532044", "-60518227517604824", "38686595857143400", "78754425048828128", "-33360820263624192", "-2217851579189300", "43260216712951664", "53784042596817016"], ["-64989946782588960", "65706849098205568", "58113217353820800", "-62189050018787384", "-49442511051893232", "-10253369808197022", "30442573130130768", "14972858130931854", "-65132632851600648", "-26998162269592284", "-27992788702249528", "-4868552088737488", "28860449790954588", "62947079539299008", "68216934800148008", "-31900286674499512", "-68851783871650696", "77038630843162544", "66340968012809752", "11077746748924256", "-12522995471954346", "-62983386218547824", "65318778157234192", "-31767517328262328", "13157881796360016", "12652032077312470", "-59286817908287048", "30043318867683412", "-289171934127807", "24429008364677428", "47394618391990664", "19571922719478608", "75499176979064944", "-12512616813182830", "17793521285057068", "25210849940776824", "-35752873867750168", "-73980897665023808", "1043774187564849", "-72846934199333184", "-68891361355781552", "-29968097805976868", "-44966582208871840", "79841598868370064", "43188899755477904", "-31568434089422224", "42891800403594968", "34502141177654268", "-67884400486946104", "24433925747871400", "66939547657966616", "-14930456876754760", "69352999329566952", "3065951168537140", "70920765399932864", "-22453017532825468"], ["51260188221931456", "81515967845916752", "8214972913265228", "-71605548262596128", "-22203579545021056", "3778055310249328", "-6183326244354248", "-31166844069957732", "79179465770721440", "-34259874373674392", "75855836272239680", "-25992210954427720", "41996404528617856", "-16286857426166534", "73046937584877008", "-18849842250347136", "3252156078815460", "-16333147883415222", "78117564320564272", "-19274771213531496", "-47831978648900984", "-83938866853713984", "47053933143615720", "39731740951538088", "-15476301312446594", "-10080486536026000", "-23473918437957764", "-65532363951206208", "-62606960535049440", "44733241200447080", "31436555087566376", "-55085353553295136", "-65343096852302552", "-45414157211780552", "-59970349073410032", "-52552994340658184", "7162816822528839", "6032235920429230", "-42503964155912400", "-53752489387989048", "-37381824105978016", "-70445731282234192", "59163153171539304", "55278837680816648", "-25883279740810396", "16855612397193908", "84491059184074400", "-63625790178775784", "13033047318458558", "30244834721088408", "66248312592506408", "-52938688546419144", "-13676263391971588", "-62593825161457064", "5715034902095795", "-62960714101791384"], ["-49170427024364472", "-33175762742757796", "-16211375594139100", "60463115572929384", "-27189444750547408", "83216354250907904", "65271720290184024", "-82443274557590480", "15871003270149230", "-72616338729858400", "19851140677928924", "-23929469287395476", "68030968308448792", "57911068201065064", "77869355678558352", "47713935375213624", "-66263310611248016", "76348602771759040", "-66394262015819552", "20269274711608888", "-16620926558971406", "-72202838957309728", "-33649068325757980", "-66878773272037504", "18215961754322052", "-51211003214120864", "64390718936920168", "60144320130348208", "-12567564845085144", "-8193470537662506", "10449595749378204", "82200750708580016", "-27700994163751604", "77082738280296320", "-2830758690834045", "-31238880008459092", "50115630030632016", "-10278455913066864", "24152792990207672", "-17912305891513824", "32032892107963564", "50078645348548888", "28025291860103608", "-71837477385997776", "-63189037144184112", "-83393067121505744", "66864922642707824", "33099777996540068", "-2375490963459015", "32685071229934692", "83094164729118352", "57520970702171328", "66506534814834592", "22349305450916292", "-64153075218200680", "-58698255568742752"], ["-50272308290004728", "-15341375023126602", "-6222596857696772", "-55785976350307464", "-32622087746858596", "-78698478639125824", "147281333804130560", "16167767345905304", "-30817758291959764", "38206093013286592", "-132900148630142208", "-403019454097375", "111068151891231536", "1016250229440629", "18905794247984888", "-66245466470718384", "-29790297150611876", "-57142410427331928", "35261087119579316", "-45755349099636080", "84869742393493648", "7254148367792368", "94522461295127872", "179653419763781", "17412276938557624", "10014875791966916", "-72646394371986384", "-38386031985282896", "-36046221852302552", "43910734355449680", "31691774725914000", "59740897268056872", "10740080848336220", "69667741656303408", "-12328130193054676", "128096014261245728", "-74966728687286384", "-7822765968739986", "-138008758425712592", "76663963496685024", "-62336083501577376", "28436519205570220", "156488418579101568", "-62336828559637072", "6533462088555098", "-28136501088738440", "-43296314775943760", "106186822056770320", "149825736880302432", "19029431045055388", "-12921908870339394", "90423122048377984", "26653265580534936", "-11644423939287662", "-15015023760497570", "6262609269469976"], ["606692254543304448", "-920396745204925568", "444895386695861824", "-944434642791748096", "794177949428558336", "-526119232177734400", "809840619564056448", "-501240491867065408", "-522029519081115712", "-983546912670135552", "713648140430450432", "-703031539916992128", "-632234811782836864", "882901608943939200", "-623904228210449280", "-864656329154968320", "-426311910152435328", "-928009688854217472", "-810446918010711680", "-1055083155632019072", "958302795886993408", "-847062587738037120", "511854410171508800", "-133411437273025520", "-267510056495666496", "241470456123352064", "737328112125396736", "-301183551549911488", "808616161346435584", "748121142387390080", "406021773815155008", "-1018510222434997504", "116288617253303520", "824862658977508608", "-956375300884246784", "-944326639175415040", "-607753217220306432", "-395085036754608128", "-617457866668701184", "824875414371490432", "-657061636447906432", "694896936416625920", "-746705889701843200", "-453523367643356352", "774252235889434752", "715128481388092032", "-690943837165832576", "975271999835968000", "692277789115905792", "-842667520046234112", "-686693608760833792", "649929165840148864", "906217694282531712", "-504269599914550784", "-21472802385687828", "-886413633823394816"], ["457591533660888640", "-722245275974273664", "-770510017871856640", "-1462076902389526272", "1065343856811523456", "-1250018835067749120", "1573606729507446272", "-1241180419921874944", "-644004106521606400", "-599368870258331264", "-726678729057312000", "-1661490321159362816", "908682823181152384", "614108860492706304", "424233704805374144", "-816121220588684032", "-899676442146301312", "-1118507385253906304", "286080896854400640", "-1539602160453796352", "586589336395263616", "-1263168811798095616", "1138464808464050304", "-1458685517311096064", "257202357053756704", "144738346338272096", "307308018207550080", "-992911398410797056", "893333435058593792", "227436393499374400", "77476367354393008", "667284011840820352", "1291206479072570880", "863440394401550336", "-1632980823516845824", "878830194473266560", "-749142765998840320", "-894249498844146688", "-1481079339981079040", "629924893379211392", "-1533330440521240320", "1108135819435119616", "1218636512756347648", "-836987733840942336", "1203799366950988800", "-1092475652694702208", "-1247608423233032192", "1236521720886230528", "1396157145500183040", "395847976207733184", "-253556400537490848", "377918034791946432", "848212122917175296", "-1108993649482727040", "-350069940090179456", "-926298677921295104"], ["777355492115020800", "784883379936218240", "-985132157802581760", "-667419731616973824", "408885389566421504", "-725899577140808064", "813449323177337600", "-690463602542877184", "-369706660509109504", "-127562060952186592", "-1120182514190673792", "-871110081672668416", "907613515853881856", "408531069755554176", "979896843433380096", "56066013872623440", "-176536753773689280", "-643924176692962688", "736254632472992000", "-950110018253326464", "-808416724205017088", "-1001325607299804672", "695230424404144256", "-1247448086738586368", "197799250483512864", "-394850820302963264", "-804016530513763456", "-599015951156616192", "-115020930767059328", "-685104727745056128", "479873836040496832", "981303095817565952", "916016697883606016", "52050556987524032", "-455535113811492928", "1179294705390930176", "-130596742033958432", "-551407098770141632", "-619676291942596480", "-153663158416748032", "-871054649353027328", "367452651262283328", "789991736412048384", "-778398931026458752", "838861942291259776", "-752707242965698304", "-407541990280151360", "626036107540130560", "657648146152496384", "1194867610931396608", "442719876766204864", "162088260054588320", "-517055034637451200", "-489993572235107392", "251714050769805920", "-257852524518966688"], ["-1802811861038208000", "-590723216533660928", "1480754613876342784", "101488776504993440", "576988995075225856", "806597590446472192", "255426257848739616", "1082659602165222144", "1879539012908935424", "1257751345634460416", "908531308174133248", "1163368105888366592", "-1059838533401489280", "-1854099154472350976", "-1418444752693176320", "1280581712722778368", "-174822628498077408", "1662128925323486208", "-649243831634521472", "195740967988967904", "854518771171569792", "1617019176483154176", "-237110540270805344", "1314844846725463808", "-1300466299057006848", "2167765140533447168", "658626258373260544", "213140994310379040", "1619118690490722560", "1222279310226440448", "-1852523207664489728", "-765923202037811328", "-1305793881416320768", "-1563027977943420416", "60655262321233752", "-390787482261657728", "-945421338081359872", "-252282500267028800", "926384329795837440", "-1079203724861144960", "768517374992370560", "-1012586116790771456", "-865534305572509824", "1646738529205322240", "-1716725230216979968", "813981533050537088", "812333047389984128", "-1394003629684448256", "-51743373274803160", "-683527231216430720", "-1630164980888366592", "1180733323097229056", "1097335338592529280", "-974075853824615424", "-1716643452644348160", "-568001508712768576"], ["820223271846771200", "-1369171857833862400", "-481845051050186176", "-2701100826263427584", "2471048355102539264", "-1155098080635070720", "2099015474319458048", "-978472113609313920", "-795364379882812544", "-1938713669776916480", "-165412381291389472", "-1204364299774169856", "287090569734573376", "1326244592666626048", "115344218909740448", "-2055071592330932736", "-244607806205749504", "-1540177702903747584", "-234358519315719616", "-2709499597549438464", "877369940280914304", "-1079964637756347648", "483830779790878272", "-536474883556365952", "284706115722656256", "-383761078119277952", "505962908267974848", "-859738409519195520", "1246528148651122944", "450972050428390528", "828858494758605952", "-150118201971054080", "573340475559234624", "1668099761009216256", "-2514705419540405248", "-9768486022949218", "-2172963380813598720", "-1076806545257568384", "-1666973948478698752", "1800369501113891584", "-1052506685256957952", "1531263470649719296", "153997048735618592", "-546253204345703104", "1573600530624389632", "-301906734704971328", "-940309464931488000", "1831396102905273344", "1627539753913879296", "4476360045373440", "-234794422984123232", "657142639160156288", "1345094680786132736", "-2142338514328002816", "543423175811767552", "-2432055234909057536"], ["-664515197277069056", "166088029742240896", "407636731863021824", "-251457095146179200", "624592006206512512", "-40655478835105896", "558381259441375744", "-129034027457237248", "770288288593292288", "1528208017349243136", "-33880539238452912", "318985104560852032", "-217744350433349600", "-1107888102531433088", "-193968638777732864", "1319591999053955072", "-424866348505020160", "763599455356597888", "63322372734546664", "110885336995124816", "54068781435489656", "266592860221862784", "261941343545913696", "79202882945537568", "-519924998283386240", "486477494239807104", "-146467477083206176", "-455191433429718016", "486065894365310656", "107661306858062752", "-630931973457336448", "398279279470443712", "-101058095693588256", "-972821056842803968", "-379778563976287872", "313061624765396096", "-53640160709619520", "-682320296764373760", "163964912295341504", "-1436175346374511616", "8207648061215878", "-280507326126098624", "91769278049468992", "250598996877670304", "-607225000858306944", "-120996899902820592", "-196680083870887744", "-229306206107139584", "456338703632354752", "334309279918670656", "-342042177915573120", "329188317060470592", "284595876932144160", "-469134896993637056", "-805383861064910848", "482767879962921152"], ["-509967684745788544", "31347777694463728", "291321098804473856", "-963215827941894528", "1533176541328430080", "-223198249936103808", "1213431835174560512", "-101026006042957312", "500898897647857664", "1420408129692077568", "-153961434960365280", "89692637324333184", "-30226929113268852", "-952615857124328576", "-210442721843719488", "963125050067901568", "-758778691291809024", "477408379316329984", "35692345350980760", "-556019544601440448", "22050311788916588", "132174834609031680", "566471338272094720", "19706254824995996", "-479689985513687104", "571913778781890880", "-83082914352416992", "-646335959434509312", "693904399871826176", "166173577308654784", "-577461421489715584", "333352833986282368", "-97533151507377632", "-830101430416107136", "-1048792362213134720", "347083717584609984", "-595098137855529728", "-1110848546028137216", "-41435401886701584", "-1667975544929504512", "-116591170430183408", "-84402523934841152", "127251908183097840", "130224511027336128", "-414079517126083392", "-134934708476066592", "-126504674553871152", "-140159755945205696", "940492510795593216", "351800292730331392", "-361755639314651520", "544867455959320064", "371135920286178560", "-1625466227531433216", "-742330253124237056", "-487235993146896384"], ["-900141239166259712", "-1063968300819396992", "217935681343078624", "-1305806159973144576", "1404814243316650496", "-599517822265624960", "1861902952194213888", "-643112957477569536", "-211272269487380992", "1194505929946899456", "-179444715380668640", "-642286121845245312", "-55921163409948352", "-671891748905181824", "-188843160867691040", "-216251763049513", "-1437916636466980096", "450807183980941760", "287151128053665152", "-1015322446823120128", "470981538295745856", "407078683376312256", "1163862466812133888", "203131958842277536", "230570286512374880", "962997138500213632", "348171710968017600", "-471808314323425280", "1023822188377380352", "187556654214859008", "-847818255424499456", "489330977201461760", "116733290255069728", "-351199239492416384", "-2347037315368652288", "814143121242523136", "-875743269920349184", "-505642950534820544", "-1212428569793701120", "269090265035629280", "-501108944416046144", "278450191020965568", "473310172557830784", "245122402906417856", "-449247002601623552", "-339195996522903424", "-961907267570495616", "407858133316040064", "1919177412986755328", "38529556244611744", "-313957065343856832", "1007893323898315392", "1616295337677001984", "-2497336864471435776", "-750826597213745152", "-467846751213073728"], ["-1511740446090698240", "-781890988349914496", "435689121484756480", "-136852070689201360", "262299150228500352", "-224420979619026176", "1121173739433288576", "-592572331428527872", "-769056379795074432", "2232052087783813376", "-97466029226779936", "-534964263439178496", "-100444495677948000", "-844318568706512512", "-383091151714324928", "904272735118865920", "-845800876617431680", "1260408878326416128", "289860874414443968", "344416618347168000", "306176215410232512", "811820745468139648", "1058274745941162112", "398341357707977280", "528860569000244160", "837807834148407040", "421470165252685568", "177840322256088256", "133380815386772160", "-231945917010307328", "-906804621219635072", "678682863712310784", "359812378883361792", "-1330696582794189568", "-2332303762435913216", "798812091350555392", "1192587733268737792", "68399190902709960", "-1087256193161010688", "100368104875087744", "-265608638525009152", "-394344568252563456", "409313738346099840", "382794380187988288", "-1429886579513549824", "-227874070405960096", "-1104743719100952192", "-116025283932685856", "1961949467658996480", "86350210011005408", "191774860024452224", "1111465334892272896", "1577707052230834944", "-698677897453308160", "-285414397716522208", "1126477599143981952"], ["-1566828608512878336", "-829314947128295936", "578620791435241728", "-202764153480529792", "761761248111724800", "-163114055991172800", "209217116236686720", "-755563914775848448", "-44878080487251280", "1813190698623657216", "-182946488261222848", "71251302957534792", "-133240625262260432", "-905962765216827392", "-120412938296794896", "890330135822296192", "-222209185361862176", "1632954478263855104", "305571287870407104", "1021737575531005824", "96949137747287744", "763343036174774144", "643232166767120384", "221039995551109312", "-131345242261886592", "-71864500641822816", "35261623561382292", "2600536914542317", "-493322193622589120", "-574997007846832256", "-162723049521446240", "1053498148918151808", "467556715011596672", "-1420364618301391616", "-856382906436920192", "349029332399368256", "1900809049606323200", "-449948698282241792", "-320937395095825216", "127006977796554560", "-28027562424540520", "-373950958251953152", "366732001304626496", "1940529327839613", "-1565533518791198720", "-311925917863845824", "-1183002233505249024", "15890676528215408", "898106396198272768", "396253496408462528", "553342401981353728", "343375444412231424", "946484923362731904", "529723823070526144", "-219880446791648864", "1476302027702331648"], ["-215089887380599968", "672322928905487104", "-431592583656311040", "867690026760101376", "-813420057296752896", "336196631193161024", "-161468446254730240", "450763851404190080", "-924207627773284864", "1286229133605957120", "-242928147315979008", "-647589743137359616", "285020440816879264", "206005737185478208", "246669456362724320", "318271458148956288", "-172631993889808640", "-2189082559198141", "803042113780975360", "-56780759245157240", "-670524835586547840", "552847623825073216", "379503935575485248", "17945824190974236", "718187689781188992", "841050088405609088", "154461324214935296", "859010577201843200", "-52523642778396608", "-178145229816436768", "-488977938890457152", "-206738471984863296", "80934986472129824", "177882567048072800", "527074277400970432", "637298762798309376", "252753585577011104", "782893002033233664", "-658789098262786816", "-564098417758941632", "276244372129440320", "-263789594173431392", "511545360088348416", "528859853744506816", "-483773827552795392", "-153702393174171456", "665960013866424576", "-836663186550140416", "-181420087814331040", "-560637295246124288", "-43866116553545000", "1219638109207153408", "-458199203014373760", "-647211194038391168", "515592038631439232", "863864958286285440"], ["-892122507095336960", "-201432600617408768", "213072374463081344", "5951814353466034", "176997244358062752", "-25501919910311700", "57692002505064008", "-502464473247528064", "-328608393669128448", "1662789225578308096", "-386623442173004160", "1809945795685052", "154476776719093312", "-479590833187103296", "195407837629318240", "784722208976745600", "124608755111694336", "847893774509429888", "408163785934448256", "999209940433502208", "-139963924884796144", "402874231338500992", "398731619119644160", "-88564231991767888", "213030532002449024", "-241041630506515488", "-441771477460861184", "62721408903598784", "-552732706069946304", "-773089766502380416", "102014094591140752", "825343966484069888", "576819837093353216", "-769162416458129920", "-215483769774436960", "445959448814392064", "1490388154983520512", "-182566910982131968", "-116889610886573792", "382311344146728512", "-99030397832393648", "-331190049648284928", "268278449773788448", "-357798188924789440", "-1080559253692626944", "-358602464199066176", "-751672923564910848", "20581400021910668", "361360073089599616", "467315316200256320", "651199400424957312", "312685698270797760", "385473161935806272", "379845857620239232", "202097520232200608", "1432217478752136192"], ["-212606325745582592", "827673077583313024", "-96370615065097808", "522635698318481472", "-251115649938583360", "274963557720184320", "-152124285697937024", "441485613584518464", "-122281707823276512", "1873143553733825792", "-155475348234176640", "-218099132180213920", "74174463748931888", "-622150182723998976", "161477878689765920", "671419978141784704", "-351982563734054592", "295914143323898304", "718771457672119168", "-227644771337509152", "-411499738693237312", "429799795150756864", "415810793638229376", "71718044579029080", "123068228363990784", "818082273006439168", "-350538969039916992", "191653117537498464", "221695870161056512", "-69377914071083072", "-784337997436523392", "78864835202693936", "-315843045711517312", "-4836809355765581", "582298696041107200", "416400402784347520", "35695511847734452", "201440379023551936", "-165248692035675040", "-1604337811470031616", "392668485641479488", "-415758252143859840", "416775375604629504", "523669362068176256", "-436455756425857536", "-234931677579879776", "804477095603942912", "-1094669103622436480", "-204532802104949952", "-309309244155883776", "-399171859025955200", "631408154964446976", "-461669623851776128", "-541696369647979712", "-263543277978897088", "160057485103607168"], ["-370312392711639424", "-205402716994285568", "-19778057932853700", "107960447669029232", "354831039905548096", "-265122115612030016", "95047481358051296", "-12905950658023358", "-238504096865653984", "780148148536682112", "-29109213501214980", "-323434442281723008", "85866540670394896", "-270901799201965344", "23267803713679312", "-88494129478931424", "-535597145557403584", "258269160985946656", "529913127422332736", "-353035330772399872", "337800085544586176", "111591830849647520", "1043507575988769536", "-50566282123327256", "203085884451866144", "255738049745559680", "55536728352308272", "-41938021779060360", "-63590116798877720", "62300611287355424", "-461915522813796992", "169779628515243520", "-150599524378776544", "242440268397331232", "-120865948498249056", "218522012233734144", "200222790241241440", "-98808176815509792", "-415811479091644288", "26631740853190424", "115645982325077056", "266028225421905504", "581067025661468544", "255154341459274304", "-131201997399330144", "-251977264881134048", "244559556245803840", "-411116570234298688", "337027877569198592", "-507109105587005632", "-270411521196365344", "389140129089355456", "185322731733322144", "-526013314723968512", "-217672541737556448", "-246518507599830624"], ["-193370804190635680", "-8147751912474632", "-1534525421448052", "-79777486622333520", "643878817558288512", "-344395697116851776", "-384148299694061248", "-185560867190361024", "246544018387794496", "630029141902923520", "32077398151159288", "-54586075246334072", "237402021884918208", "-577566266059875456", "339943528175353984", "-66629581153392792", "-616632103919982848", "435745328664779648", "717355549335479680", "-163165524601936352", "56698519736528400", "-42226158082485200", "1077784061431884800", "-138581514358520512", "-74083536863327024", "-117154173552989952", "-442952036857604992", "-302872896194457984", "-541015326976776128", "-47557704150676728", "-283871591091156000", "493193119764328000", "-388596236705780032", "307432025671005248", "258336603641510016", "172609478235244736", "7158939726650715", "-410847902297973632", "99076807498931888", "-635923027992248576", "178415060043334976", "162774547934532160", "616951704025268608", "-17327018082141876", "236662074923515328", "-471171379089355456", "332023471593856832", "-573783874511718720", "-14253486879169940", "-304657131433486912", "-186182439327240000", "-270465195178985600", "-207060873508453376", "-68148016929626464", "-661075234413147008", "-118409007787704464"], ["200757458806037888", "260581433773040768", "8602443151175976", "-405937522649764992", "56469906121492384", "-281799912452697760", "532398819923400896", "220732867717742912", "659502804279327360", "-288541764020919808", "-10108651593327522", "160523489117622368", "297711133956909184", "-878270030021667456", "-194020181894302368", "-242979928851127616", "-1342168331146240256", "-266623526811599744", "25366863235831260", "-612225472927093504", "-84868073463439936", "140161767601966864", "-123136892914772032", "188718125224113472", "-367708414793014528", "206775844097137440", "37868648767471312", "-614359378814697216", "503266453742980928", "653708040714263936", "-1245830416679382272", "-54656788706779480", "-274457097053527840", "160501003265380864", "-886946022510528512", "468337476253509504", "-1416605472564697344", "157167002558708192", "34504115581512452", "-984717786312103296", "-356980979442596416", "176556855440139776", "348221600055694592", "199368909001350400", "13041753321886062", "-388260960578918464", "-283576637506484992", "-223492398858070368", "210038900375366208", "114381611347198480", "-393707633018493632", "-342937111854553216", "60677420347929000", "-759568929672241152", "-745186388492584192", "-242659673094749440"], ["290209144353866560", "51457788795232776", "-324169963598251328", "-69347411394119264", "538824558258056640", "-501872181892395008", "-48868369311094288", "46725161373615264", "-115148417651653296", "512737452983856192", "-150210618972778336", "-306118339300155648", "284104168415069568", "-39466764777898792", "609919190406799360", "-161264136433601376", "-660945057868957568", "42923770844936368", "774555802345275904", "-1007641196250915584", "76149664819240576", "-686645865440368640", "1622680425643920896", "-557193219661712640", "140446230769157408", "179523199796676640", "-385720044374465920", "-445781201124191296", "-74203379452228544", "11822724714875222", "-183044955134391776", "123836211860179904", "-241773486137390144", "540159285068511936", "264204412698745728", "235068649053573600", "-442429363727569600", "-385486483573913600", "-421919941902160640", "-729966402053832960", "-28150290250778200", "457115650177001984", "851632356643676800", "168902009725570688", "870314717292785664", "-754215598106384256", "951924145221710208", "-453846752643585216", "68952269852161408", "-560156762599945088", "-558459460735321024", "229845732450485216", "-347307860851287872", "-690193712711334272", "-310462176799774144", "-1521673679351806720"], ["-829491734504699648", "-300947189331054656", "246851876378059392", "-329900890588760384", "258397907018661504", "-188178256154060352", "587309360504150400", "-30198568478226660", "84175512194633488", "910191297531127936", "-103007026016712192", "-86003094911575312", "67123353481292728", "-1023322224617004416", "-326880186796188352", "353811353445053120", "-586270451545715328", "670644938945770240", "249710708856582656", "-573200047016143808", "214261621236801152", "461743891239166272", "619325757026672384", "280558675527572640", "50824545323848728", "881899893283843968", "265180319547653184", "-220673874020576480", "607512593269348096", "307333052158355712", "-1168706893920898560", "245078295469284064", "-169910877943038944", "-378237545490264896", "-658032178878784128", "354194551706314112", "-231409698724746720", "-138015106320381168", "-305605024099349952", "-586949050426483200", "-26514437049627304", "-219299808144569408", "431532651185989376", "525922715663909888", "-583898961544036864", "-231531649827957152", "-91445207595825200", "-180256709456443776", "443706095218658432", "9439454413950444", "-458992302417755136", "336118578910827648", "617525875568389888", "-906593203544616704", "-460771739482879616", "-179571405169554"], ["-638624787330627456", "-34596424549818040", "-32163999974727632", "-826430082321166976", "510144472122192384", "-241698548197746272", "472306609153747584", "-438204020261764544", "-297270357608795136", "847592532634735104", "-363023340702056896", "-83029858767986304", "-98892845213413232", "-379460453987121600", "117130704224109648", "907434284687042176", "445067107677459712", "750778973102569600", "100366167724132544", "-303248733282089216", "-161730468273162848", "-62278695404529568", "339068919420242304", "-392945319414138816", "304855674505233792", "507273256778717056", "-347446531057357760", "-58668907731771472", "513354301452636736", "-377150982618331904", "262648582458496096", "445171564817428608", "403243601322174080", "-876081407070159872", "-588443279266357376", "380202651023864768", "561381459236145024", "-989118218421936000", "-343358933925628672", "524302423000335680", "-362130880355834944", "-555496871471405056", "79240441322326656", "-382733911275863616", "-681143879890441856", "-676004856359213", "-359976619482040384", "433955878019332864", "567214429378509504", "582761347293853696", "144613891839981088", "651841104030609152", "715202808380126976", "-445163577795028672", "438843548297882112", "369010955095291136"], ["740125238895416320", "220003411173820480", "-649614870548248320", "128189131617546080", "212834760546684256", "-47733869403600696", "-351363539695739776", "6882787216454744", "-243806093931198112", "-152504041790962208", "38240604102611544", "47397684305906296", "355831205844879168", "321961581707000704", "1049050807952880896", "-6371695548295975", "-105371885001659392", "-784899413585662848", "525385081768035904", "125972762703895568", "-226428225636482240", "-2119378566741943296", "124116115272045136", "-512776553630828864", "232282653450965888", "-687781155109405568", "-1043217897415161088", "13485535047948360", "-677970349788665728", "-462934345006942720", "559420466423034688", "187539458274841312", "207253918051719680", "163148522377014176", "275370985269546496", "-131266310811042784", "232189416885375968", "-387472271919250496", "161503180861473088", "11010192334651948", "185536250472068800", "33537108451128004", "236035242676734912", "-829219639301300096", "460414409637451200", "-172602206468582144", "371795326471328704", "-74319280683994288", "-319022029638290432", "-70947334170341488", "440943956375122048", "-118748210370540624", "-463858455419540416", "180627912282943712", "83047352731227872", "-18213503062725068"], ["-1324990510940551680", "-2815347671508789248", "1426238656044006400", "-2259644746780395520", "3389352560043335168", "-1366841554641723648", "349268794059753408", "-346259534358978240", "1311210274696350208", "-297169387340545664", "604201436042785664", "-97752369940280912", "-334218561649322496", "-3153106451034545664", "-1504063963890075648", "-1106431961059570304", "-2518549680709838848", "707588672637939456", "402931451797485376", "-2159885168075561472", "2057484149932861440", "-451798111200332672", "1782752752304077056", "805773198604583680", "-1125828981399536128", "-110455267131328576", "1494474768638610944", "-2795422077178955264", "-60849409550428392", "1446424722671508736", "-2599714040756225536", "431516170501708992", "-898432493209838848", "913808584213256832", "-1077138900756835968", "38928374648094176", "-2045961856842041088", "-3828611373901367296", "-195792734622955328", "-1427083492279052800", "-98147243261337280", "1940565586090087936", "1577872872352600064", "1280720829963684096", "1025941848754882816", "-983936011791229312", "23606954142451288", "-189867898821830752", "602732956409454336", "-828109800815582336", "-2480770349502563328", "-682087898254394496", "637187898159027072", "-1199427485466003456", "-1966295361518859776", "-2471097946166992384"], ["-3571688652038574080", "247440695762634272", "521201491355896000", "-1512133717536926208", "-2473164796829223424", "478456825017929088", "3072890043258667008", "-445051252841949440", "-2041238784790039040", "4619097232818603008", "-1054228186607360896", "-677196085453033472", "-1048690319061279360", "-970376610755920384", "-611421108245849600", "4167838096618652160", "3907587289810180608", "2893653392791748096", "-692104220390319872", "-1115303158760070784", "-522675335407257088", "2274450778961181696", "802171647548675584", "-206484735012054432", "1331718087196350208", "4289854526519775232", "935351431369781504", "3008763790130615296", "4260434150695800832", "-973862290382385280", "-444062590599060032", "178074344992637632", "1197556376457214464", "-4491004467010498048", "-2600268602371215872", "1478912949562072832", "3112851381301879808", "1536788702011108352", "-1710460901260376064", "2384790420532226560", "-948016285896301312", "-3256412506103515648", "-1163578510284423936", "351829528808593728", "-4381572723388672000", "1152909398078918400", "-1254498243331909120", "836693465709686272", "2749742984771728384", "2049437046051025408", "-568834483623504640", "4423039913177490432", "4416952610015868928", "-3191207647323608576", "2132393121719360256", "2295634746551513600"], ["-1426005125045776384", "-1475259542465209856", 